MTP
version = 1.1.0
potential_name = MTP_l2k3
scaling = 2.488320000000000e-02
L = 2
scaling_map = LK
species_count = 5
potential_tag = 
radial_basis_type = RBChebyshev_sss
	min_dist = 2.000000000000000e+00
	max_dist = 6.000000000000000e+00
	radial_basis_size = 8
	radial_funcs_count = 9
shift_coeffs = {-8.147556462937262e+00, -8.864347889048783e+00, -8.997705920137708e+00, -1.023048080518224e+01, -1.058058837615040e+01}
scal_coeffs = {1.461833155795046e+00, 2.545843672552924e+00, 3.113176147778399e+00, 2.951811888135115e+00, 1.950517337584395e+00, 1.511208161394622e+00, 1.981027278177554e+00, 2.304916964048304e+00, 2.291051351621194e+00, 1.691397183659475e+00, 6.491705617301217e-01, 1.595823166612675e+00, 2.346399394799425e+00, 2.223410728913004e+00, 1.855502459469173e+00, 2.012342078065151e+00, 1.665760252041506e+00, 2.336410542656921e+00, 2.401265163011807e+00, 1.636724516146234e+00, 5.680423558091069e-01, 1.729345110660272e+00, 1.991085675862513e+00, 1.946924824132050e+00, 1.643100223597785e+00, 1.152375082863274e+00, 2.240038356354129e+00, 2.248920906613817e+00, 2.206691142743288e+00, 1.935247405045217e+00, 1.630564257334642e+00, 2.259008845734296e+00, 2.373100783356307e+00, 2.471461708902587e+00, 2.217876154710260e+00, 8.248896159035748e-01, 2.066621699799855e+00, 2.407595964241578e+00, 2.428501662154909e+00, 2.196619581331829e+00, 1.767062228541255e+00, 2.185002166522467e+00, 2.603080589360548e+00, 2.605299587100973e+00, 2.138787664696707e+00, 2.692085745031321e-01, 2.222529401379340e+00, 2.331498856616845e+00, 2.636926238910621e+00, 2.327727844409969e+00, 6.526660688872951e-01, 4.806443557590702e-01, 4.938209846098664e-01, 2.164026128735729e+00, 1.766229048978885e+00, 1.443770784913647e+00, 2.952627946667604e+00, 2.303781760338363e+00, 2.340062432362110e+00, 2.137677830267566e+00, 1.477428520483512e+00, 2.134774472835148e+00, 3.796408750033272e+00, 3.046326396891036e+00, 1.561024252820613e+00, 3.428020341971851e+00, 1.878971784476376e+00, 2.660718102826026e+00, 3.181920662738844e+00, 3.379754342520036e+00, 1.980566481082337e+00, 2.899113676865809e+00, 3.395723268174193e+00, 2.790408970213291e+00, 2.723116744232043e+00, -4.825568586768997e-01, -2.707751240617366e+00, -1.847569187463576e+00, 2.944005206343046e-01, 5.065173720490501e-01, 5.450496992281973e-01, 1.777253858198817e+00, 1.430631283170213e+00, 1.521239482506225e+00, 1.430963946434522e+00, 3.491966446438535e-01, 1.148182887647615e+00, 1.797974764165826e+00, 1.670713206941045e+00, 5.520402876816646e-01, 1.725053013057419e+00, 9.994915436101814e-01, 1.489112879610376e+00, 1.801909002552735e+00, 1.840253274537543e+00, 1.095466052485325e+00, 1.899457531249929e+00, 2.015873411732010e+00, 1.838221684270722e+00, 1.890156194150185e+00, 2.536239261997519e+00, 2.482905582182657e+00, 2.543023704609830e+00, 2.586876550779610e+00, 2.575606422894608e+00, 1.461299795433381e+00, 2.473916427382393e+00, 2.499286615687947e+00, 2.502748336278939e+00, 2.649053009349346e+00, 1.191553331143125e+00, 2.509419410806621e+00, 2.316938391784223e+00, 2.289471621813012e+00, 2.535181181587495e+00, 2.620749932621049e+00, 2.310153675399283e+00, 2.448430222471660e+00, 2.418106218714564e+00, 2.839014674014570e+00, 9.354261978770325e-01, 2.324216885984618e+00, 2.388980956192040e+00, 2.584200067774193e+00, 2.670784357327555e+00, 1.716599984721244e+00, 2.535041342160014e+00, 2.480506888365614e+00, 2.444834193070203e+00, 2.514264577440951e+00, 1.066965944658445e+00, 2.410211188402338e+00, 2.395437387573193e+00, 2.443254579469958e+00, 2.515497103435251e+00, 9.618795213956950e-01, 2.317935415420667e+00, 2.187107284851545e+00, 2.257632749137029e+00, 2.439402115250065e+00, 2.070816899674806e+00, 2.456471137875731e+00, 2.491102463365562e+00, 2.480516129761583e+00, 2.561646121396676e+00, 5.186285659333216e-01, 2.474542823299238e+00, 2.449339373337962e+00, 2.637628942140646e+00, 2.603042212499817e+00, 3.435553530730256e+00, 3.213125302293447e+00, 4.003098080620673e+00, 4.364949951973149e+00, 3.642480639723385e+00, 3.109163110932418e-01, 2.162090937063339e+00, 3.631487531153890e+00, 3.624712472020530e+00, 4.493326305829188e+00, 2.221151361249712e+00, 3.415953568433395e+00, 2.711677311077247e+00, 4.584884962660904e+00, 4.380899135800041e+00, 6.022221673474388e+00, 2.120173598398591e+00, 2.418993190376794e+00, 1.731360678079551e+00, 4.405308108161847e+00, 1.128372944430011e+00, 2.724922897891319e+00, 3.872319858319530e+00, 4.743297779372090e+00, 4.737648133886286e+00, 2.538020339239730e+00, 3.375829054408648e+00, 3.352542008798709e+00, 3.290571836299722e+00, 3.395806750158030e+00, -8.699205837332030e-01, 3.456891622964334e+00, 3.355769195823374e+00, 3.331170373068808e+00, 3.192803080214524e+00, 2.154304245025872e+00, 2.473447183746921e+00, 2.231738408206088e+00, 2.204359048547944e+00, 2.501725185738287e+00, 2.041978270885614e+00, 2.650745307983584e+00, 2.794029884978811e+00, 2.441071503330993e+00, 2.855068454616466e+00, 1.340307407507902e+00, 3.771514982829452e+00, 3.367713735418507e+00, 3.301845009277371e+00, 3.283613008820987e+00, 2.940166390231421e+00, 4.037599740422406e+00, 2.480483818105928e+00, 3.645629106383454e+00, 3.733016732232158e+00, 1.979508612267594e-01, 3.671514731011399e+00, 3.399832843764917e+00, 1.393155195262103e+00, 7.885773727544341e-01, 4.694271300760819e+00, 4.621246065326392e+00, 5.673521920366320e+00, 6.098931719577994e+00, 4.850497310819409e+00, 1.137154545466842e+00, 4.387026922283826e+00, 5.482149875897323e+00, 5.448241910580117e+00, 4.902518347797674e+00, 4.061511229206246e-01, 4.393207113976977e+00, 3.338449446740045e+00, 2.438904515675492e+00, 2.421304929279621e+00, 2.191850083473720e+00, 2.604864571601472e+00, 2.422262251483481e+00, 2.687948129655280e+00, 2.679752465900513e+00, -6.525338640788385e+00, 2.701418177122845e+00, 2.419054184197598e+00, 1.520337158307384e+00, 3.210898211875499e+00, 2.281551491024345e+00, 2.837075689891084e+00, 2.830691310357251e+00, 2.978488055449330e+00, 2.928324858275327e+00, 7.067999120301258e-01, 3.008773796445495e+00, 2.936332374743632e+00, 3.124212338658628e+00, 3.206263863609370e+00, -2.554373830166830e+00, 2.749129029665422e+00, 2.762852263916550e+00, 2.879950256605977e+00, 2.918384536183888e+00, 2.217994444168146e+00, 2.088832853902344e+00, 2.194400771399664e+00, 1.436664730989918e+00, 1.867562841408668e+00, -4.219891602028844e-01, 2.935824122620812e+00, 1.993840928724992e+00, 2.018487163282717e+00, 1.616235248209146e+00, 1.102694111926293e+00, 3.108180274825756e+00, 3.509547991800508e+00, 3.560556434115818e+00, 1.675644076530285e+00, 1.053595035706323e+00, 2.482635949515068e+00, 3.177635272542494e+00, 3.293233319382225e+00, 2.917247555657049e+00, 1.475728174795673e+00, 3.075330961531285e+00, 1.786176019938407e+00, 2.038100695543156e+00, 2.371480459368393e+00, 1.399162154944207e+00, 2.493532465002602e+00, 2.357810603459545e+00, 1.888134595286014e+00, 2.418949210240318e+00, 4.809571867861216e-01, 2.431645217156772e+00, 2.261558353264722e+00, 2.345277455778225e+00, 1.857899763192560e+00, 1.576381084862866e+00, 2.607075400163619e+00, 2.656246351203092e+00, 2.830466646715954e+00, 2.434974591559655e+00, 2.691049714698483e+00, 2.660597063563638e+00, 2.727225517316605e+00, 2.904392759823787e+00, 2.853653538931352e+00, 1.511200629790704e+00, 2.612652108472068e+00, 2.288031345677433e+00, 2.336007261594649e+00, 2.390905980239411e+00, 1.601075305932824e+00, 1.670192797030073e+00, 1.337582997390512e+00, 1.095390998034706e+00, 1.520943434890099e+00, 5.360027141381749e-01, 2.468772742862792e+00, 2.285602626494744e+00, 2.366102560830701e+00, 1.674300920634846e+00, 2.231806931596808e+00, 3.725767568687998e+00, 4.437430060580691e+00, 4.098164322003799e+00, 3.207199099430658e+00, 1.806945277882650e+00, 3.463437355489525e+00, 4.659871042266370e+00, 4.286556573358999e+00, 3.195408119630382e+00, 1.328370078217778e+00, 2.734695243649079e+00, 1.086889020369546e+00, 2.218546520329976e+00, 2.637118936812494e+00, 1.422051438857798e+00, 2.480685486520280e+00, 2.276696413696146e+00, 2.381724751596581e+00, 2.297259617960057e+00, -8.129908464846448e-01, 2.310387370727338e+00, 2.403818459864148e+00, 2.345797413710576e+00, 2.370510034736950e+00, 2.477715212673466e+00, 2.747271411559524e+00, 2.723862599692646e+00, 2.900573558925280e+00, 2.908686570950441e+00, 2.874288775713795e+00, 2.938131821386273e+00, 2.835685755002398e+00, 2.963523623445485e+00, 2.990586844561580e+00, 2.363763851216349e+00, 2.393327252169303e+00, 2.084106254625474e+00, 2.458019850237041e+00, 2.335634813950434e+00, 2.470989803914330e+00, 5.214288310926944e+00, 4.294413876661936e+00, 5.706878860637667e+00, 5.411992520406277e+00, 2.789137042727464e+00, 3.072551376433825e+00, 4.125919010212027e+00, 3.671910453070060e+00, 3.111387744172279e+00, 1.091374135146353e+00, 4.253174223503880e+00, 4.366128323978714e+00, 3.797921956742536e+00, 3.123655720334372e+00, 3.511933060139277e+00, 3.182868237435155e+00, 2.100593130005536e+00, 2.457135179648361e+00, 2.442935294464614e+00, 2.102443620881881e+00, 2.235388854189519e+00, 2.578034641984147e+00, 3.316652334678420e+00, 2.587158391156442e+00, 3.241900595899927e+00, 3.339368095074535e+00, 3.081806200006722e+00, 3.428149693503257e+00, 3.497705543119269e+00, 3.580022718505166e+00, 3.970053182258833e+00, 3.527413927989627e+00, 3.785809633281185e+00, 4.030557991591362e+00, 5.258909647120782e+00, 3.504035895061190e+00, 3.305968318486232e+00, 3.476487596734006e+00, 3.730955065437523e+00, 3.653200043841288e+00, 3.923281498299076e+00, 4.016675946806401e+00, 3.916168177316964e+00, 4.177046990553876e+00, 4.397083908559290e+00, 4.373424302413659e+00, 3.947963658908900e+00, 3.953834154640199e+00, 4.216509180993793e+00, 2.666335434190323e+00, 2.415492437786611e+00, 3.902860987170436e+00, 2.390763840115349e+00, 2.888985534771784e+00, 3.012819452595255e+00, 2.344541146691386e-01, -4.835777007417844e-02, -3.542090343017840e-02, 1.534494552368397e+00, 2.450364747144218e+00, 4.031550914347686e+00, 4.749291289063837e+00, 4.339784306310182e+00, 3.697027955377033e+00, 2.211443398205417e+00, 3.348503689322459e+00, 4.656858006774721e+00, 4.648422456095127e+00, 2.950996659676363e+00, 1.320259355005191e+00, 1.434840561903655e+00, 4.531221264997411e+00, -7.030390119767436e-02, -4.108997468254010e-02, 2.639167050200991e+00, 2.715570734759370e+00, 2.210310764756177e+00, 2.753225202546278e+00, 2.711171830414599e+00, 9.634248019710707e-01, 1.787420397633350e+00, 1.155810044688014e+00, 8.415998875331685e-01, 3.078407518617159e+00, 3.302254148715975e+00, 2.908951990311339e+00, 2.810228559950451e+00, 2.978063254783243e+00, 3.117161464222721e+00, 3.053831583911307e+00, 3.147353512075454e+00, 2.934521117003900e+00, 3.050418938595505e+00, 3.235571822035363e+00, 3.512166135319450e+00, 7.383837051184945e-01, 2.288516725243220e+00, 1.715585589163878e+00, 2.091778040814996e+00}
	radial_coeffs
		0-0
			{3.100636184767580e-01, -7.639059436638930e-01, 1.337245761698134e+00, -4.963875450561213e-01, 3.599509007475434e-01, -1.152103420986870e-01, 5.693801579216620e-02, -6.558532578225060e-03, 6.056875487786352e-01, 6.016707135417813e-01, 5.456338383671692e-01, 6.399855395764702e-01, 7.017130786277890e-01}
			{1.751780582535252e+00, -3.990605164200008e+00, 1.747750408208423e+00, 2.930607451984979e+00, -3.777346414384183e+00, 3.338386989154480e+00, -1.391958866360433e+00, 4.747332380871592e-01, 1.000000000000000e+00, 1.000000000000000e+00, 1.000000000000000e+00, 1.000000000000000e+00, 1.000000000000000e+00}
			{1.289510073029023e+00, -3.596863350374869e+00, 7.595605564471798e-01, -1.060363924270146e+00, 2.723954078519754e-01, -2.825403325501455e-01, 6.525430675903793e-02, -3.776232965855127e-02, 1.000000000000000e+00, 1.000000000000000e+00, 1.000000000000000e+00, 1.000000000000000e+00, 1.000000000000000e+00}
			{-1.637463330528878e+00, -1.908361199198356e+00, -2.797013196907628e-01, 6.483713085253556e-02, -3.955442864943752e-02, 3.957466361531660e-02, -3.465772476589246e-03, 8.450882323934619e-03, 1.000000000000000e+00, 1.000000000000000e+00, 1.000000000000000e+00, 1.000000000000000e+00, 1.000000000000000e+00}
			{-1.945135280958949e-01, 5.869518079304974e-01, 6.917035102387883e-02, 3.522257350786462e-01, -2.591953962619456e-02, 1.071076089591158e-01, -6.058049167545154e-03, 3.023778782024206e-02, 1.000000000000000e+00, 1.000000000000000e+00, 1.000000000000000e+00, 1.000000000000000e+00, 1.000000000000000e+00}
			{1.469468146116304e+00, -1.366878373273023e-02, 2.931359567935711e-01, 3.383809004254884e-01, 1.801022109306190e-01, 1.044736890886079e-01, 1.311226605671558e-02, 2.563639645029846e-02, 1.000000000000000e+00, 1.000000000000000e+00, 1.000000000000000e+00, 1.000000000000000e+00, 1.000000000000000e+00}
			{-2.012605673348518e-01, -1.502979493384291e+00, 7.364353543688663e-01, -8.785490451200811e-02, 1.756782130300806e-01, 1.779391086171648e-02, 2.475896015631126e-02, 7.488615784539103e-03, 1.000000000000000e+00, 1.000000000000000e+00, 1.000000000000000e+00, 1.000000000000000e+00, 1.000000000000000e+00}
			{-5.035020111392058e-01, -6.204808567726954e-01, 4.546466743163520e-01, -1.439490523291758e-02, 1.111951664402998e-01, -2.146316873398870e-02, 2.761138154743277e-02, -1.236555966075241e-02, 1.000000000000000e+00, 1.000000000000000e+00, 1.000000000000000e+00, 1.000000000000000e+00, 1.000000000000000e+00}
			{-1.986025069338246e+00, -1.646436154623900e+00, 1.031404888313199e+00, -4.706887317351230e-01, 2.366064334360416e-01, -1.001437357951711e-01, 3.010957481282306e-02, -1.657883120928583e-02, 1.000000000000000e+00, 1.000000000000000e+00, 1.000000000000000e+00, 1.000000000000000e+00, 1.000000000000000e+00}
alpha_moments_count = 238
alpha_index_basic_count = 30
alpha_index_basic = {{0, 0, 0, 0}, {1, 1, 0, 0}, {1, 0, 1, 0}, {1, 0, 0, 1}, {2, 2, 0, 0}, {2, 1, 1, 0}, {2, 1, 0, 1}, {2, 0, 2, 0}, {2, 0, 1, 1}, {2, 0, 0, 2}, {3, 0, 0, 0}, {4, 1, 0, 0}, {4, 0, 1, 0}, {4, 0, 0, 1}, {5, 2, 0, 0}, {5, 1, 1, 0}, {5, 1, 0, 1}, {5, 0, 2, 0}, {5, 0, 1, 1}, {5, 0, 0, 2}, {6, 0, 0, 0}, {7, 1, 0, 0}, {7, 0, 1, 0}, {7, 0, 0, 1}, {8, 2, 0, 0}, {8, 1, 1, 0}, {8, 1, 0, 1}, {8, 0, 2, 0}, {8, 0, 1, 1}, {8, 0, 0, 2}}
alpha_index_times_count = 436
alpha_index_times = {{0, 0, 1, 30}, {0, 30, 1, 31}, {10, 30, 1, 32}, {20, 30, 1, 33}, {0, 10, 1, 34}, {10, 34, 1, 35}, {20, 34, 1, 36}, {0, 20, 1, 37}, {20, 37, 1, 38}, {10, 10, 1, 39}, {10, 39, 1, 40}, {20, 39, 1, 41}, {10, 20, 1, 42}, {20, 42, 1, 43}, {20, 20, 1, 44}, {20, 44, 1, 45}, {1, 1, 1, 46}, {2, 2, 1, 46}, {3, 3, 1, 46}, {1, 11, 1, 47}, {2, 12, 1, 47}, {3, 13, 1, 47}, {1, 21, 1, 48}, {2, 22, 1, 48}, {3, 23, 1, 48}, {11, 11, 1, 49}, {12, 12, 1, 49}, {13, 13, 1, 49}, {11, 21, 1, 50}, {12, 22, 1, 50}, {13, 23, 1, 50}, {21, 21, 1, 51}, {22, 22, 1, 51}, {23, 23, 1, 51}, {4, 4, 1, 52}, {5, 5, 2, 52}, {6, 6, 2, 52}, {7, 7, 1, 52}, {8, 8, 2, 52}, {9, 9, 1, 52}, {4, 14, 1, 53}, {5, 15, 2, 53}, {6, 16, 2, 53}, {7, 17, 1, 53}, {8, 18, 2, 53}, {9, 19, 1, 53}, {4, 24, 1, 54}, {5, 25, 2, 54}, {6, 26, 2, 54}, {7, 27, 1, 54}, {8, 28, 2, 54}, {9, 29, 1, 54}, {14, 14, 1, 55}, {15, 15, 2, 55}, {16, 16, 2, 55}, {17, 17, 1, 55}, {18, 18, 2, 55}, {19, 19, 1, 55}, {14, 24, 1, 56}, {15, 25, 2, 56}, {16, 26, 2, 56}, {17, 27, 1, 56}, {18, 28, 2, 56}, {19, 29, 1, 56}, {24, 24, 1, 57}, {25, 25, 2, 57}, {26, 26, 2, 57}, {27, 27, 1, 57}, {28, 28, 2, 57}, {29, 29, 1, 57}, {0, 46, 1, 58}, {0, 47, 1, 59}, {0, 48, 1, 60}, {0, 49, 1, 61}, {0, 50, 1, 62}, {0, 51, 1, 63}, {10, 46, 1, 64}, {10, 47, 1, 65}, {10, 48, 1, 66}, {10, 49, 1, 67}, {10, 50, 1, 68}, {10, 51, 1, 69}, {20, 46, 1, 70}, {20, 47, 1, 71}, {20, 48, 1, 72}, {20, 49, 1, 73}, {20, 50, 1, 74}, {20, 51, 1, 75}, {0, 52, 1, 76}, {0, 53, 1, 77}, {0, 54, 1, 78}, {0, 55, 1, 79}, {0, 56, 1, 80}, {0, 57, 1, 81}, {10, 52, 1, 82}, {10, 53, 1, 83}, {10, 54, 1, 84}, {10, 55, 1, 85}, {10, 56, 1, 86}, {10, 57, 1, 87}, {20, 52, 1, 88}, {20, 53, 1, 89}, {20, 54, 1, 90}, {20, 55, 1, 91}, {20, 56, 1, 92}, {20, 57, 1, 93}, {46, 46, 1, 94}, {46, 47, 1, 95}, {46, 48, 1, 96}, {46, 49, 1, 97}, {46, 50, 1, 98}, {46, 51, 1, 99}, {47, 47, 1, 100}, {47, 48, 1, 101}, {47, 49, 1, 102}, {47, 50, 1, 103}, {47, 51, 1, 104}, {48, 48, 1, 105}, {48, 49, 1, 106}, {48, 50, 1, 107}, {48, 51, 1, 108}, {49, 49, 1, 109}, {49, 50, 1, 110}, {49, 51, 1, 111}, {50, 50, 1, 112}, {50, 51, 1, 113}, {51, 51, 1, 114}, {46, 52, 1, 115}, {46, 53, 1, 116}, {46, 54, 1, 117}, {46, 55, 1, 118}, {46, 56, 1, 119}, {46, 57, 1, 120}, {47, 52, 1, 121}, {47, 53, 1, 122}, {47, 54, 1, 123}, {47, 55, 1, 124}, {47, 56, 1, 125}, {47, 57, 1, 126}, {48, 52, 1, 127}, {48, 53, 1, 128}, {48, 54, 1, 129}, {48, 55, 1, 130}, {48, 56, 1, 131}, {48, 57, 1, 132}, {49, 52, 1, 133}, {49, 53, 1, 134}, {49, 54, 1, 135}, {49, 55, 1, 136}, {49, 56, 1, 137}, {49, 57, 1, 138}, {50, 52, 1, 139}, {50, 53, 1, 140}, {50, 54, 1, 141}, {50, 55, 1, 142}, {50, 56, 1, 143}, {50, 57, 1, 144}, {51, 52, 1, 145}, {51, 53, 1, 146}, {51, 54, 1, 147}, {51, 55, 1, 148}, {51, 56, 1, 149}, {51, 57, 1, 150}, {52, 52, 1, 151}, {52, 53, 1, 152}, {52, 54, 1, 153}, {52, 55, 1, 154}, {52, 56, 1, 155}, {52, 57, 1, 156}, {53, 53, 1, 157}, {53, 54, 1, 158}, {53, 55, 1, 159}, {53, 56, 1, 160}, {53, 57, 1, 161}, {54, 54, 1, 162}, {54, 55, 1, 163}, {54, 56, 1, 164}, {54, 57, 1, 165}, {55, 55, 1, 166}, {55, 56, 1, 167}, {55, 57, 1, 168}, {56, 56, 1, 169}, {56, 57, 1, 170}, {57, 57, 1, 171}, {1, 1, 1, 172}, {1, 2, 1, 173}, {1, 3, 1, 174}, {2, 2, 1, 175}, {2, 3, 1, 176}, {3, 3, 1, 177}, {4, 172, 1, 178}, {5, 173, 2, 178}, {6, 174, 2, 178}, {7, 175, 1, 178}, {8, 176, 2, 178}, {9, 177, 1, 178}, {14, 172, 1, 179}, {15, 173, 2, 179}, {16, 174, 2, 179}, {17, 175, 1, 179}, {18, 176, 2, 179}, {19, 177, 1, 179}, {24, 172, 1, 180}, {25, 173, 2, 180}, {26, 174, 2, 180}, {27, 175, 1, 180}, {28, 176, 2, 180}, {29, 177, 1, 180}, {11, 11, 1, 181}, {11, 12, 1, 182}, {11, 13, 1, 183}, {12, 12, 1, 184}, {12, 13, 1, 185}, {13, 13, 1, 186}, {4, 181, 1, 187}, {5, 182, 2, 187}, {6, 183, 2, 187}, {7, 184, 1, 187}, {8, 185, 2, 187}, {9, 186, 1, 187}, {14, 181, 1, 188}, {15, 182, 2, 188}, {16, 183, 2, 188}, {17, 184, 1, 188}, {18, 185, 2, 188}, {19, 186, 1, 188}, {24, 181, 1, 189}, {25, 182, 2, 189}, {26, 183, 2, 189}, {27, 184, 1, 189}, {28, 185, 2, 189}, {29, 186, 1, 189}, {21, 21, 1, 190}, {21, 22, 1, 191}, {21, 23, 1, 192}, {22, 22, 1, 193}, {22, 23, 1, 194}, {23, 23, 1, 195}, {4, 190, 1, 196}, {5, 191, 2, 196}, {6, 192, 2, 196}, {7, 193, 1, 196}, {8, 194, 2, 196}, {9, 195, 1, 196}, {14, 190, 1, 197}, {15, 191, 2, 197}, {16, 192, 2, 197}, {17, 193, 1, 197}, {18, 194, 2, 197}, {19, 195, 1, 197}, {24, 190, 1, 198}, {25, 191, 2, 198}, {26, 192, 2, 198}, {27, 193, 1, 198}, {28, 194, 2, 198}, {29, 195, 1, 198}, {172, 172, 1, 199}, {173, 173, 2, 199}, {174, 174, 2, 199}, {175, 175, 1, 199}, {176, 176, 2, 199}, {177, 177, 1, 199}, {172, 181, 1, 200}, {173, 182, 2, 200}, {174, 183, 2, 200}, {175, 184, 1, 200}, {176, 185, 2, 200}, {177, 186, 1, 200}, {172, 190, 1, 201}, {173, 191, 2, 201}, {174, 192, 2, 201}, {175, 193, 1, 201}, {176, 194, 2, 201}, {177, 195, 1, 201}, {181, 181, 1, 202}, {182, 182, 2, 202}, {183, 183, 2, 202}, {184, 184, 1, 202}, {185, 185, 2, 202}, {186, 186, 1, 202}, {181, 190, 1, 203}, {182, 191, 2, 203}, {183, 192, 2, 203}, {184, 193, 1, 203}, {185, 194, 2, 203}, {186, 195, 1, 203}, {190, 190, 1, 204}, {191, 191, 2, 204}, {192, 192, 2, 204}, {193, 193, 1, 204}, {194, 194, 2, 204}, {195, 195, 1, 204}, {4, 4, 1, 205}, {5, 5, 1, 205}, {6, 6, 1, 205}, {4, 5, 1, 206}, {5, 7, 1, 206}, {6, 8, 1, 206}, {4, 6, 1, 207}, {5, 8, 1, 207}, {6, 9, 1, 207}, {5, 5, 1, 208}, {7, 7, 1, 208}, {8, 8, 1, 208}, {5, 6, 1, 209}, {7, 8, 1, 209}, {8, 9, 1, 209}, {6, 6, 1, 210}, {8, 8, 1, 210}, {9, 9, 1, 210}, {4, 205, 1, 211}, {5, 206, 2, 211}, {6, 207, 2, 211}, {7, 208, 1, 211}, {8, 209, 2, 211}, {9, 210, 1, 211}, {14, 205, 1, 212}, {15, 206, 2, 212}, {16, 207, 2, 212}, {17, 208, 1, 212}, {18, 209, 2, 212}, {19, 210, 1, 212}, {24, 205, 1, 213}, {25, 206, 2, 213}, {26, 207, 2, 213}, {27, 208, 1, 213}, {28, 209, 2, 213}, {29, 210, 1, 213}, {14, 14, 1, 214}, {15, 15, 1, 214}, {16, 16, 1, 214}, {14, 15, 1, 215}, {15, 17, 1, 215}, {16, 18, 1, 215}, {14, 16, 1, 216}, {15, 18, 1, 216}, {16, 19, 1, 216}, {15, 15, 1, 217}, {17, 17, 1, 217}, {18, 18, 1, 217}, {15, 16, 1, 218}, {17, 18, 1, 218}, {18, 19, 1, 218}, {16, 16, 1, 219}, {18, 18, 1, 219}, {19, 19, 1, 219}, {4, 214, 1, 220}, {5, 215, 2, 220}, {6, 216, 2, 220}, {7, 217, 1, 220}, {8, 218, 2, 220}, {9, 219, 1, 220}, {14, 214, 1, 221}, {15, 215, 2, 221}, {16, 216, 2, 221}, {17, 217, 1, 221}, {18, 218, 2, 221}, {19, 219, 1, 221}, {24, 214, 1, 222}, {25, 215, 2, 222}, {26, 216, 2, 222}, {27, 217, 1, 222}, {28, 218, 2, 222}, {29, 219, 1, 222}, {24, 24, 1, 223}, {25, 25, 1, 223}, {26, 26, 1, 223}, {24, 25, 1, 224}, {25, 27, 1, 224}, {26, 28, 1, 224}, {24, 26, 1, 225}, {25, 28, 1, 225}, {26, 29, 1, 225}, {25, 25, 1, 226}, {27, 27, 1, 226}, {28, 28, 1, 226}, {25, 26, 1, 227}, {27, 28, 1, 227}, {28, 29, 1, 227}, {26, 26, 1, 228}, {28, 28, 1, 228}, {29, 29, 1, 228}, {4, 223, 1, 229}, {5, 224, 2, 229}, {6, 225, 2, 229}, {7, 226, 1, 229}, {8, 227, 2, 229}, {9, 228, 1, 229}, {14, 223, 1, 230}, {15, 224, 2, 230}, {16, 225, 2, 230}, {17, 226, 1, 230}, {18, 227, 2, 230}, {19, 228, 1, 230}, {24, 223, 1, 231}, {25, 224, 2, 231}, {26, 225, 2, 231}, {27, 226, 1, 231}, {28, 227, 2, 231}, {29, 228, 1, 231}, {205, 205, 1, 232}, {206, 206, 2, 232}, {207, 207, 2, 232}, {208, 208, 1, 232}, {209, 209, 2, 232}, {210, 210, 1, 232}, {205, 214, 1, 233}, {206, 215, 2, 233}, {207, 216, 2, 233}, {208, 217, 1, 233}, {209, 218, 2, 233}, {210, 219, 1, 233}, {205, 223, 1, 234}, {206, 224, 2, 234}, {207, 225, 2, 234}, {208, 226, 1, 234}, {209, 227, 2, 234}, {210, 228, 1, 234}, {214, 214, 1, 235}, {215, 215, 2, 235}, {216, 216, 2, 235}, {217, 217, 1, 235}, {218, 218, 2, 235}, {219, 219, 1, 235}, {214, 223, 1, 236}, {215, 224, 2, 236}, {216, 225, 2, 236}, {217, 226, 1, 236}, {218, 227, 2, 236}, {219, 228, 1, 236}, {223, 223, 1, 237}, {224, 224, 2, 237}, {225, 225, 2, 237}, {226, 226, 1, 237}, {227, 227, 2, 237}, {228, 228, 1, 237}}
alpha_scalar_moments = 175
alpha_moment_mapping = {0, 10, 20, 30, 31, 32, 33, 34, 35, 36, 37, 38, 39, 40, 41, 42, 43, 44, 45, 46, 47, 48, 49, 50, 51, 52, 53, 54, 55, 56, 57, 58, 59, 60, 61, 62, 63, 64, 65, 66, 67, 68, 69, 70, 71, 72, 73, 74, 75, 76, 77, 78, 79, 80, 81, 82, 83, 84, 85, 86, 87, 88, 89, 90, 91, 92, 93, 94, 95, 96, 97, 98, 99, 100, 101, 102, 103, 104, 105, 106, 107, 108, 109, 110, 111, 112, 113, 114, 115, 116, 117, 118, 119, 120, 121, 122, 123, 124, 125, 126, 127, 128, 129, 130, 131, 132, 133, 134, 135, 136, 137, 138, 139, 140, 141, 142, 143, 144, 145, 146, 147, 148, 149, 150, 151, 152, 153, 154, 155, 156, 157, 158, 159, 160, 161, 162, 163, 164, 165, 166, 167, 168, 169, 170, 171, 178, 179, 180, 187, 188, 189, 196, 197, 198, 199, 200, 201, 202, 203, 204, 211, 212, 213, 220, 221, 222, 229, 230, 231, 232, 233, 234, 235, 236, 237}
species_coeffs = {1.869625519215803e+00, 1.720808735035036e+00, 7.098478975799640e-01, 8.198960889823328e-01, 1.331358729076115e+00}
moment_coeffs = {4.155656423971182e+00, -1.254748918563192e+00, -9.480904722331334e-01, -5.569430699187658e-02, -1.832184987352324e+00, 1.118566945055343e+00, -3.108988307325379e-01, -1.389918039091485e+00, -8.690279273642082e-02, 7.451764759818433e-01, -1.958453577579958e+00, 7.168996499710184e-01, -1.160775178109338e-01, 1.368405372105025e-02, -1.613979794961415e-01, 5.012360114804172e-01, -3.296081949144239e-01, 1.779050317150629e+00, 2.426004933710062e-01, 4.295265350381833e+00, -4.380400374780597e+00, 6.262547243767917e+00, -1.185237818323021e-01, -9.252911798497782e-02, -3.387415586131639e+00, -9.718776044191658e+00, -7.177382457491625e+00, -5.488841630097337e+00, -3.212028966633688e-02, -5.124729404633645e+00, -3.307215452682489e+00, -3.666989962722523e+00, 1.263857264786004e+01, -1.862813685536081e+00, 1.465312079576180e+00, 3.319933975873175e+00, -1.772284305774648e+00, 3.702612031292965e-01, 6.174684810335236e-01, 5.770573932542534e-01, -7.597319753696795e-01, 4.850846520032238e-01, 1.356640501217685e+00, 4.230413087471568e+00, -1.492337506244197e+00, 5.375725503591109e+00, -3.865630086393204e+00, 3.410255432642700e+00, 2.275887645971022e+00, 4.275916531724579e+00, 2.484437625447302e+00, -1.711012909119629e+00, 4.168217337152832e+00, 4.002313775442152e+00, 3.912835930059228e-01, -1.034653885431694e+00, -2.429539172199588e-01, 1.186469669871891e+00, -3.047488195857634e-01, 5.767972810955178e-01, 3.614034047701618e-01, 9.744544297351273e-01, -1.041059506887106e+00, 8.700349233740032e-01, -9.669325181248430e-01, -3.555064922050551e+00, -1.445526242545726e+00, -5.361837771052390e-01, 2.926420183362568e+00, -5.420546133113255e+00, -4.158751475665673e-01, 1.044169725072484e+00, 9.937591742722192e-01, 8.010261007075629e-01, 6.199110455369915e+00, -2.306288724166789e+00, 3.991405653955543e-01, -4.963685130677810e-02, -1.676186098364342e+00, 2.545708550784536e+00, -2.330183239599669e-01, -5.388499947952619e+00, -1.430885664892168e+00, 3.125727033785763e-01, 8.936719918781925e-01, -6.344890455176252e-01, -1.887392363625414e-01, 1.940154081271501e-01, 4.210116369485960e-01, -2.882061116276559e+00, 1.189006986093450e-01, -2.849511194955847e-02, 1.738641121222876e+00, 8.291098226128476e-01, -1.524492307845002e+00, -6.580646121205196e+00, -4.510667928337504e+00, -1.507142108876265e+00, 1.361715568500590e+00, 1.729024737106599e+00, -5.028254706440133e+00, -4.550878464023801e+00, 2.959909729092180e+00, 1.058008016417714e+00, 3.993954349268631e+00, 1.659043799483318e+00, -2.954877570542300e+00, -2.876970795085228e+00, -2.411762004691236e+00, 4.042109964639204e+00, -5.525345514705322e-01, -2.244382306949433e+00, -2.871505438788537e+00, 9.139347076115535e-01, 1.043862937452205e+00, 3.431034345273907e+00, 2.593540138319297e+00, 5.028265963622828e-01, -1.205952029109555e+00, 3.451629684853807e+00, 4.069088194775254e+00, -5.754206227023489e-01, -1.994233789742878e+00, -1.098766153537829e+00, -3.717744286355352e-01, 4.196316012561679e-02, 2.260959395674574e-01, -9.724581271174089e-01, 8.752542379234382e-03, 1.356796093455806e-01, -6.590742891823057e-01, -1.736810759740305e+00, 4.599920297675271e-01, 1.993690713849835e+00, 7.620666347124522e-01, -4.155609684538447e-01, 9.733708560676957e-02, 5.885744878674007e-01, 3.363539994536346e-01, -7.394763539253029e-01, -2.065670303614279e+00, -7.863557319951555e-01, -3.069805167560073e+00, -2.832163634823942e+00, -6.696718691938176e-01, 9.392358857183770e-01, 2.730837075562485e+00, 1.996113279131064e-01, 9.749819956069987e-01, -2.945394013687356e+00, -1.238331662189974e+00, 3.183293051103155e+00, -1.490042968343539e+00, -4.889665931996988e+00, -4.896372954362456e-01, 3.862515764158797e-01, -2.526675603069481e+00, -1.545261019452039e+00, -1.898377093579822e-03, 4.848523345657398e-01, 1.299316773707917e+00, 2.356430729486120e+00, -8.681533068251605e+00, 5.863241627484348e+00, -9.940644576169647e-01, -1.465201552548679e+00, -2.208459525603117e+00, -1.837597732777301e+00, -1.020354906798638e+00, -9.167877323537794e-01, 1.300799888687273e+00, -2.057798674885710e+00, 7.334674975135376e-01, -2.202607530243466e-01, -5.012332329375156e-02}