MTP
version = 1.1.0
potential_name = sus2mlip_l2k2
scaling = 3.473362967833620e-03
L = 2
scaling_map = LK
species_count = 2
potential_tag = 
radial_basis_type = RBChebyshev_sss
	min_dist = 0.000000000000000e+00
	max_dist = 6.000000000000000e+00
	radial_basis_size = 8
	radial_funcs_count = 6
shift_coeffs = {-5.492760287537931e-01, -1.517575417817757e+00}
scal_coeffs = {8.220237037728911e-01, 7.683287372880790e+00, 1.439063716996895e+00, 1.521673596792786e+00, -3.572409105328231e+00, -1.848682835676731e+00, -7.076707586831071e-01, -8.971410139162451e-01, 5.447222287177905e+00, 5.352813753994356e+00, 2.413087934754214e+00, 8.289662364315662e+00, -2.961597114688777e+00, -3.955425165017262e+00, 7.388278892333743e-01, -6.786029361686416e+00, 1.135412951214549e+00, 1.247479897800641e+01, 1.275000746358098e+00, 3.854432656713596e+00, -3.422604291605504e-01, -9.315060660888726e+00, 6.469131863553494e-02, -2.246234099263697e+00, 1.662603654610260e+00, 2.710425337875217e+00, 4.619216559511459e+00, 4.247715497534670e+00, -4.393275312669840e+00, -9.815048484870243e+00, 1.076427455038615e+00, 7.355154296337947e-01, 2.736353652654281e+00, 1.892149092572338e+00, 4.285328757906491e+00, 7.906735187468867e-01, -3.847674264166235e-01, -1.226012886354195e+00, -2.160951051518168e+00, -6.816592057367251e+00, 5.962176143067766e+00, 1.637295682735001e+01, 8.745566749855399e+00, 1.176060554123590e+00, -4.200094351565233e+00, 1.909238597843037e-02, -9.402730207879358e+00, -4.620066690040248e+00}
	radial_coeffs
		0-0
			{-1.480554004817831e+00, -1.204633186648434e+00, -2.439859401785394e-01, 1.122362060926504e+00, 2.727798424884257e+00, 3.591755878189732e+00, 2.096154999029781e+00, -4.624667763468070e+00, 5.175210384906435e-01, 4.508913187547224e-01}
			{2.259912511479042e+00, 1.573283461528419e+00, 7.835953973503363e-01, -4.328833422591244e-01, -1.569974839692283e+00, -2.538370159973437e+00, -8.419827656020112e-01, 3.172898706811417e+00, 1.000000000000000e+00, 1.000000000000000e+00}
			{-1.725753865459102e+00, -4.401585968347733e-01, 3.331358071244535e+00, 5.835493039518227e+00, 3.513324939668036e+00, -3.148475323935904e+00, -9.198054396163984e+00, 6.181915982783888e+00, 1.000000000000000e+00, 1.000000000000000e+00}
			{3.259495945133502e+00, 2.938306257752812e+00, 1.549735853398736e+00, -5.812482353162741e-01, -2.320306903654738e+00, -3.160584720252715e+00, -1.676725820675084e+00, 5.330694607800269e+00, 1.000000000000000e+00, 1.000000000000000e+00}
			{-2.590119218794936e+00, -2.584642893517141e+00, -2.094397432389644e+00, -1.394817378652369e+00, -3.841969819764366e-01, 8.985601423391827e-01, 2.325892739731382e+00, 4.166010891015320e+00, 1.000000000000000e+00, 1.000000000000000e+00}
			{-2.296939747847421e+00, -2.317996707474554e+00, -2.901691453305733e-01, 1.296812068494434e+00, 3.011679470842117e+00, 3.769770433718197e+00, 1.744601376633669e+00, -4.837260704427015e+00, 1.000000000000000e+00, 1.000000000000000e+00}
alpha_moments_count = 104
alpha_index_basic_count = 20
alpha_index_basic = {{0, 0, 0, 0}, {1, 1, 0, 0}, {1, 0, 1, 0}, {1, 0, 0, 1}, {2, 2, 0, 0}, {2, 1, 1, 0}, {2, 1, 0, 1}, {2, 0, 2, 0}, {2, 0, 1, 1}, {2, 0, 0, 2}, {3, 0, 0, 0}, {4, 1, 0, 0}, {4, 0, 1, 0}, {4, 0, 0, 1}, {5, 2, 0, 0}, {5, 1, 1, 0}, {5, 1, 0, 1}, {5, 0, 2, 0}, {5, 0, 1, 1}, {5, 0, 0, 2}}
alpha_index_times_count = 199
alpha_index_times = {{0, 0, 1, 20}, {0, 20, 1, 21}, {10, 20, 1, 22}, {0, 10, 1, 23}, {10, 23, 1, 24}, {10, 10, 1, 25}, {10, 25, 1, 26}, {1, 1, 1, 27}, {2, 2, 1, 27}, {3, 3, 1, 27}, {1, 11, 1, 28}, {2, 12, 1, 28}, {3, 13, 1, 28}, {11, 11, 1, 29}, {12, 12, 1, 29}, {13, 13, 1, 29}, {4, 4, 1, 30}, {5, 5, 2, 30}, {6, 6, 2, 30}, {7, 7, 1, 30}, {8, 8, 2, 30}, {9, 9, 1, 30}, {4, 14, 1, 31}, {5, 15, 2, 31}, {6, 16, 2, 31}, {7, 17, 1, 31}, {8, 18, 2, 31}, {9, 19, 1, 31}, {14, 14, 1, 32}, {15, 15, 2, 32}, {16, 16, 2, 32}, {17, 17, 1, 32}, {18, 18, 2, 32}, {19, 19, 1, 32}, {0, 27, 1, 33}, {0, 28, 1, 34}, {0, 29, 1, 35}, {10, 27, 1, 36}, {10, 28, 1, 37}, {10, 29, 1, 38}, {0, 30, 1, 39}, {0, 31, 1, 40}, {0, 32, 1, 41}, {10, 30, 1, 42}, {10, 31, 1, 43}, {10, 32, 1, 44}, {27, 27, 1, 45}, {27, 28, 1, 46}, {27, 29, 1, 47}, {28, 28, 1, 48}, {28, 29, 1, 49}, {29, 29, 1, 50}, {27, 30, 1, 51}, {27, 31, 1, 52}, {27, 32, 1, 53}, {28, 30, 1, 54}, {28, 31, 1, 55}, {28, 32, 1, 56}, {29, 30, 1, 57}, {29, 31, 1, 58}, {29, 32, 1, 59}, {30, 30, 1, 60}, {30, 31, 1, 61}, {30, 32, 1, 62}, {31, 31, 1, 63}, {31, 32, 1, 64}, {32, 32, 1, 65}, {1, 1, 1, 66}, {1, 2, 1, 67}, {1, 3, 1, 68}, {2, 2, 1, 69}, {2, 3, 1, 70}, {3, 3, 1, 71}, {4, 66, 1, 72}, {5, 67, 2, 72}, {6, 68, 2, 72}, {7, 69, 1, 72}, {8, 70, 2, 72}, {9, 71, 1, 72}, {14, 66, 1, 73}, {15, 67, 2, 73}, {16, 68, 2, 73}, {17, 69, 1, 73}, {18, 70, 2, 73}, {19, 71, 1, 73}, {11, 11, 1, 74}, {11, 12, 1, 75}, {11, 13, 1, 76}, {12, 12, 1, 77}, {12, 13, 1, 78}, {13, 13, 1, 79}, {4, 74, 1, 80}, {5, 75, 2, 80}, {6, 76, 2, 80}, {7, 77, 1, 80}, {8, 78, 2, 80}, {9, 79, 1, 80}, {14, 74, 1, 81}, {15, 75, 2, 81}, {16, 76, 2, 81}, {17, 77, 1, 81}, {18, 78, 2, 81}, {19, 79, 1, 81}, {66, 66, 1, 82}, {67, 67, 2, 82}, {68, 68, 2, 82}, {69, 69, 1, 82}, {70, 70, 2, 82}, {71, 71, 1, 82}, {66, 74, 1, 83}, {67, 75, 2, 83}, {68, 76, 2, 83}, {69, 77, 1, 83}, {70, 78, 2, 83}, {71, 79, 1, 83}, {74, 74, 1, 84}, {75, 75, 2, 84}, {76, 76, 2, 84}, {77, 77, 1, 84}, {78, 78, 2, 84}, {79, 79, 1, 84}, {4, 4, 1, 85}, {5, 5, 1, 85}, {6, 6, 1, 85}, {4, 5, 1, 86}, {5, 7, 1, 86}, {6, 8, 1, 86}, {4, 6, 1, 87}, {5, 8, 1, 87}, {6, 9, 1, 87}, {5, 5, 1, 88}, {7, 7, 1, 88}, {8, 8, 1, 88}, {5, 6, 1, 89}, {7, 8, 1, 89}, {8, 9, 1, 89}, {6, 6, 1, 90}, {8, 8, 1, 90}, {9, 9, 1, 90}, {4, 85, 1, 91}, {5, 86, 2, 91}, {6, 87, 2, 91}, {7, 88, 1, 91}, {8, 89, 2, 91}, {9, 90, 1, 91}, {14, 85, 1, 92}, {15, 86, 2, 92}, {16, 87, 2, 92}, {17, 88, 1, 92}, {18, 89, 2, 92}, {19, 90, 1, 92}, {14, 14, 1, 93}, {15, 15, 1, 93}, {16, 16, 1, 93}, {14, 15, 1, 94}, {15, 17, 1, 94}, {16, 18, 1, 94}, {14, 16, 1, 95}, {15, 18, 1, 95}, {16, 19, 1, 95}, {15, 15, 1, 96}, {17, 17, 1, 96}, {18, 18, 1, 96}, {15, 16, 1, 97}, {17, 18, 1, 97}, {18, 19, 1, 97}, {16, 16, 1, 98}, {18, 18, 1, 98}, {19, 19, 1, 98}, {4, 93, 1, 99}, {5, 94, 2, 99}, {6, 95, 2, 99}, {7, 96, 1, 99}, {8, 97, 2, 99}, {9, 98, 1, 99}, {14, 93, 1, 100}, {15, 94, 2, 100}, {16, 95, 2, 100}, {17, 96, 1, 100}, {18, 97, 2, 100}, {19, 98, 1, 100}, {85, 85, 1, 101}, {86, 86, 2, 101}, {87, 87, 2, 101}, {88, 88, 1, 101}, {89, 89, 2, 101}, {90, 90, 1, 101}, {85, 93, 1, 102}, {86, 94, 2, 102}, {87, 95, 2, 102}, {88, 96, 1, 102}, {89, 97, 2, 102}, {90, 98, 1, 102}, {93, 93, 1, 103}, {94, 94, 2, 103}, {95, 95, 2, 103}, {96, 96, 1, 103}, {97, 97, 2, 103}, {98, 98, 1, 103}}
alpha_scalar_moments = 62
alpha_moment_mapping = {0, 10, 20, 21, 22, 23, 24, 25, 26, 27, 28, 29, 30, 31, 32, 33, 34, 35, 36, 37, 38, 39, 40, 41, 42, 43, 44, 45, 46, 47, 48, 49, 50, 51, 52, 53, 54, 55, 56, 57, 58, 59, 60, 61, 62, 63, 64, 65, 72, 73, 80, 81, 82, 83, 84, 91, 92, 99, 100, 101, 102, 103}
species_coeffs = {3.915499131786750e-02, 1.001179403109953e-01}
moment_coeffs = {2.109312966055546e+03, -1.028017511040195e+03, -1.092814907216934e+05, 8.482467815134098e+04, -4.800775048613796e+04, 6.058235634842741e+04, -5.336690787754195e+04, -7.805232561509452e+03, 2.319526330457941e+04, 1.079327780407910e+05, 3.373535443322523e+05, 2.521704190181749e+05, 4.483943034041549e+03, -2.660520939977779e+04, -1.528770827795309e+06, 2.837860537819349e+05, 7.401761436381447e+05, 3.493390471124066e+05, -3.714327832630611e+05, -1.207554479396137e+06, -8.771622022467043e+05, 1.533278840810661e+05, 2.615250517655937e+06, -4.512821835030260e+05, -9.271205131959535e+04, 7.511876043954539e+05, -3.051305582364186e+05, -3.149934814708041e+05, -2.397775096024534e+05, 1.096013133021302e+06, 7.488120783938305e+04, -1.469444868962319e+05, -5.262365755583876e+05, 2.354624346741294e+05, 1.057169806913842e+06, -8.937579778994287e+04, 1.571969353852164e+06, -8.995727486412027e+05, 8.613478336416862e+04, 1.521301375847156e+06, 9.786106066900545e+05, -7.644175289587799e+04, 5.119131001011540e+04, -3.079049661586275e+06, -1.058900846338746e+05, 2.390681766020052e+05, -4.301094747040274e+03, -5.932817789447513e+02, -8.256411866837558e+02, -1.239920485607615e+06, -2.191033956479594e+03, 1.989157439821220e+06, -3.149941126235744e+05, 7.488151221239462e+04, -5.262366887260033e+05, 2.700855204180403e+04, -1.937970272595910e+06, 1.210197358357387e+06, 1.640375585231824e+04, 2.367539723908883e+04, 8.678232643722571e+05, 4.720061811383202e+02}