MTP
version = 1.1.0
potential_name = MTP_l2k2
scaling = 1.200000000000000e-02
L = 2
scaling_map = K
species_count = 84
potential_tag = 
radial_basis_type = RBChebyshev_sss
	min_dist = 6.800000000000000e-01
	max_dist = 6.000000000000000e+00
	radial_basis_size = 8
	radial_funcs_count = 6
shift_coeffs = {-2.676034732734200e+00, -2.035648021104894e+00, -2.625259180035842e+00, -3.961015604151655e+00, -5.916151242278028e+00, -5.261830320573351e+00, -3.503910798512024e+00, -3.000434335906703e+00, -1.692969877980754e+00, -1.911443493256023e+00, -3.519521022869384e+00, -4.618321244864571e+00, -5.672228845735224e+00, -4.732272421202108e+00, -2.390779316578459e+00, -2.160046331868762e+00, -3.096491075757468e+00, -6.330862910390961e+00, -6.335644351294966e+00, -5.410260986443791e+00, -6.812666092160059e+00, -6.609110443531139e+00, -4.923654987275254e+00, -6.351929289083627e+00, -3.879167865235361e+00, -2.328156228458181e+00, -9.688091592921098e-01, -2.716883595296645e+00, -3.931969508132237e+00, -3.930517097125632e+00, -3.652015149450000e+00, -1.663567725779153e+00, -2.399786010092873e+00, -3.055840026993097e+00, -6.423263550873782e+00, -6.988622110597488e+00, -8.025043633591684e+00, -6.985406259131704e+00, -7.358122761752218e+00, -6.056267059045468e+00, -5.202020795749548e+00, -3.841730206727611e+00, -1.469599930789822e+00, -6.377179996331210e-01, -2.716503554020265e+00, -3.760634761709955e+00, -3.272153641412546e+00, -3.130183143668725e+00, -2.596614019914409e+00, -2.213337610325739e+00, -3.186818873072624e+00, -5.910003179268511e+00, -7.122255916920443e+00, -5.851601966818919e+00, -5.988298413997125e+00, -6.395191582496482e+00, -5.735040635486351e+00, -1.014267786404119e+01, -1.508034905074057e+01, -5.830765438841804e+00, -5.694347142146993e+00, -5.113309769552053e+00, -5.240095177557968e+00, -5.176699746187578e+00, -2.653566664250864e+00, -4.669567785523243e+00, -8.814489055743044e+00, -9.679868742839551e+00, -6.554381860680259e+00, -8.544324038617292e+00, -7.812828999172292e+00, -6.062118176948444e+00, -4.694928814882564e+00, -2.669161820543435e+00, 2.915291336952125e-02, -2.070301505153876e+00, -3.270755286235027e+00, -3.746290153975625e+00, -6.135513305881727e+00, -8.071521271031454e+00, -1.007893738621070e+01, -1.237384560024561e+01, -1.321021594338891e+01, -1.523231362101440e+01}
scal_coeffs = {-7.260327787100760e-01, 1.139043532835076e+00, 3.628819853700585e+00, 1.703308603303774e+00, 3.911131994775598e+00, 1.558086093530870e+00, 1.600214278383517e+00, 2.470173762183841e+00, 1.783320612262761e+00, 2.318512214541248e-01, 2.555069501565138e-01, 6.575360424993325e-01, 9.707512125486291e-01, 5.420418439162579e-01, 1.039139428505174e+00, -3.329244877507067e-01, 5.361775707156019e-01, 2.549039953980947e+00, 1.009071943893162e+00, 1.058437557103957e+00, 4.772106207272348e+00, 1.818418473077881e+00, 1.309476893103308e+00, 1.789092261411785e+00, 2.354474594941179e+00, 6.922050665785173e-01, 6.683224787079020e-01, 2.833882180376022e-01, -3.425893424386229e-01, 2.310793567922271e-01, 8.231223488846474e-01, 9.252305406944802e-01, 6.014613364580982e-01, 1.919700410675672e+00, -7.255018404440132e-02, 6.233896565321539e-01, 8.034600888491805e-01, 7.182382852965917e-03, 1.561185903161892e+00, 1.342171950486967e+00, 1.675306658164850e+00, 1.270726442928834e+00, 2.710335229945407e+00, -5.794504001886086e-01, 1.811866021764556e+00, 1.303684839836370e+00, 1.257820305924107e+00, 7.412452449246751e-01, 6.465911994761903e-01, 3.248159764386092e-01, 4.820560054976167e-01, 8.875720683627767e-01, 1.159183019662154e+00, 1.158110581074038e+00, 8.852690497171023e-01, 1.240601503759398e+00, 1.971291955792528e+00, 3.203692516008563e-01, 6.394652898720811e-01, 1.452299468047398e+00, 8.505595292151942e-01, 1.425559046627958e+00, 1.628306643800769e+00, 1.102955843387768e+00, 7.334403895226319e-01, 1.259955962488333e+00, 1.598552279780128e+00, 5.981205449504201e-01, 3.412272001613132e+00, 1.088316442812176e+00, 2.087065610448449e+00, 8.271615792726866e-01, 5.295299581890396e-01, 1.146672129178679e+00, 1.009256113780805e+00, 1.575440435883033e+00, 2.009266145840065e+00, -2.744978927762439e-02, 1.239923061829599e+00, 1.805094016256135e+00, 1.227004726693970e+00, 1.290978571124893e+00, 1.104678007375156e-03, 1.148379845616390e+00, 3.017372547051947e-01, 1.432883065257593e+00, 1.667563266936895e+00, 1.645871984840159e+00, 1.868940430682687e+00, 1.956621082568083e+00, 9.244657672576529e-01, 1.855388116139412e-01, 2.094990932483980e+00, 1.976521377436656e+00, 1.460089825904618e+00, 1.459336399063267e+00, 6.654133344662222e-01, 4.478358344708104e-01, 2.327126930219504e-01, 1.530195755930203e+00, 5.141498518539880e-01, 2.265811188211198e+00, 3.565559282140027e-01, 2.514683711366926e+00, 2.182999281230957e+00, 1.252349817127217e+00, 2.344550554694331e+00, 2.741637374401416e+00, 2.419916242871801e+00, 1.317746944424607e+00, 1.588481189151281e+00, 2.900047753379084e+00, 1.730827715923184e+00, 1.370457024091358e+00, 5.255088787740508e-01, 5.519657857946233e-01, 1.321300112037946e+00, 1.002233893155858e+00, 1.964131220367123e+00, 1.844608288549578e+00, 1.364390725538053e-01, 2.799969024897814e+00, 1.271800456561798e+00, 9.012488947525730e-01, 1.783733391383142e+00, 1.859789056885932e+00, 1.922657631108816e+00, 2.332534188307874e+00, 1.111572034460411e+00, 2.638304413420384e+00, 1.212167528886567e+00, 8.048395863998864e-01, 1.690395663816386e-01, 2.656377059830669e+00, 1.491842782770755e+00, 4.923671866728945e-01, 1.025364546967952e+00, 1.358984471626556e+00, 1.237046248315120e+00, 1.487401790027721e+00, 1.525173397777278e+00, 1.734062721074337e+00, 1.496253415307198e+00, 2.231690045667227e+00, 1.553548511303854e+00, 8.899788442345308e-01, 1.362497867736182e+00, 1.295217790458074e+00, 2.178962064476279e+00, 1.390315260394067e+00, 9.604339031074867e-02, 1.034557971635725e+00, 3.273260206188143e-01, 1.451729531424953e+00, 1.115036219588591e+00, 1.590057361077899e+00, 7.300230847719092e-01, 1.111464249949437e+00, 1.946089504391899e+00, 1.929101255003486e+00, 1.811260482684415e+00, 1.072392597458174e+00, 1.309045083661145e+00, 9.624344580329772e-01, 1.325078228668121e+00, 1.222965752570792e+00, 1.337914484720647e+00, 1.333145440968838e+00, 3.197877535373101e-01, 5.791255590905258e-01, 9.909551644028268e-01, 1.191756270247011e+00, -3.189652852199264e-02, 9.304178311417625e-01, 1.715447871374322e+00, 1.659390047326434e+00, 3.895200012289167e-01, 4.361756588077654e-01, 1.927658136547409e+00, 4.928141620527491e-01, 8.796976369719833e-01, 1.127764154267714e+00, 7.389701963484501e-01, 2.749932450988685e-01, 5.473351322078923e-01, 1.803566746634216e+00, 6.629778969372193e-01, 1.084467457834869e+00, 1.181761938568080e+00, 1.314320456685782e+00, 8.833256773972595e-01, 8.836790887561021e-01, 9.393614522806116e-01, 7.116236472451860e-01, 7.835737633787863e-01, 7.600659183167211e-01, 1.028698004568397e+00, 1.313395959354970e+00, 1.425700428917300e+00, 1.104176341728363e+00, 7.769173185542126e-01, 1.324641098009221e+00, 1.311144984136968e+00, 1.144405344243627e+00, 7.027333289877069e-01, 9.475283007056376e-01, 4.799189183350080e-01, 1.846521097065311e+00, 1.740627185498571e+00, 1.025334464929848e+00, 1.201078594831826e+00, 9.520527337039683e-01, 1.558714165603127e+00, 1.008176265499916e+00, 1.513181342230849e+00, 7.909759500571577e-01, 1.376757143145338e+00, 1.095666037449099e+00, 6.099453392582633e-01, 7.450133148496932e-01, 1.169335323808419e+00, 1.201872617990690e+00, 1.070363644830031e+00, 1.240601503759398e+00, 1.274843550456384e+00, 1.064851345521335e+00, 1.500591155590452e+00, 1.158875942986276e+00, 1.439801178865424e+00, 1.403121752948035e+00, 1.184830919444710e+00, 1.111543512969027e+00, 6.095564073649723e-01, 1.343913924103914e+00, 1.247817067589797e+00, 8.595386113857802e-01, -3.266586146834554e-01, 1.057735720600310e+00, 9.964904810166784e-01, -1.190369396081948e-01, 2.275983420455761e+00, 8.050506839295819e-01, 1.291022789230637e+00, 1.209245445990459e-01, 1.353941043252099e+00, 1.127285894928061e+00, 1.240601503759398e+00, 1.325041671165763e+00, 1.132677519816939e+00, 8.007059520265635e-01, 1.240601503759398e+00, 1.240601503759398e+00, 2.697143065369229e-01, 1.805630993997197e-01, 5.615448156367666e-02, 4.784375440089179e-01, 1.075307610794319e+00, 9.390978629699867e-01, 9.925577245310318e+00, 2.257714447483777e+00, 1.429556285911282e+00, 9.197885140383276e-01, 2.052270645432082e-01, 7.770034367831956e-01, 1.415908555172145e+00, 5.989661508261467e-01, 2.848063134298167e+00, -2.680947444736769e-01, 1.958224696238806e+00, 2.312175238611814e+00, 4.734751705972866e-01, 7.097383194034731e-01, 1.482445873152367e+00, 1.775131647051956e+00, 1.009159065129887e+00, 8.421947152025561e-01, 1.253170560414239e+00, 4.735634230508779e-01, 2.178344761724070e-02, 2.308500410706530e+00, 1.890206064785118e+00, 1.374070834337945e+00, 1.465945506406463e+00, 1.168516001324210e+00, -5.560509449743799e-01, 2.144742572671545e+00, 1.732984647686451e-01, 1.684017000399416e+00, 2.090862173181411e+00, 1.691340175795462e+00, 1.323851329832172e+00, 1.494535950346531e+00, 1.230827555604962e+00, 8.451833411102346e-01, 1.581352101626442e+00, 6.373144060522246e-02, 1.558332599173394e+00, 1.723649204832403e+00, 1.932209286563461e+00, 9.479862222454415e-01, 1.972898921587084e+00, 5.667178214650469e-02, 4.199385247114087e-01, 1.032565334363822e+00, 5.509685600778151e-01, 2.222043186662869e-01, 9.547455822632829e-01, 1.240601503759398e+00, 8.339841999035743e-01, 1.037510309742191e+00, 1.640148786959342e+00, 3.701003585471917e-01, 6.150287424658281e-01, 9.224236325345770e-01, 4.809455078823089e-01, 1.121017284982415e+00, 9.811247978953139e-01, 7.375423457897853e-01, 1.731643832438765e+00, 7.919720590772551e-01, 1.803603256386900e+00, 2.465617142354683e+00, 1.631806726038046e+00, 1.281632463942167e+00, 8.774498448557168e-01, 1.143213720152782e+00, 4.896068254258663e-01, 1.196442446035205e+00, 1.485945488531031e+00, 2.000491771284087e-01, 1.240601503759398e+00, 4.872932814975847e-01, 1.240601503759398e+00, 7.106460008291899e-01, 9.039617890077594e-01, 5.779181449964744e-01, 1.308939799025070e+00, 9.535516823100301e-01, 7.398157362096173e-01, 1.326515466853265e+00, 1.309726465742380e+00, 4.898012541249456e+00, 1.107010342760105e+01, 6.281212523552330e-01, 1.341809562053156e+00, 1.514413475377430e+00, 1.383791686591768e+00, 5.940806179486069e-01, 1.218926414023911e+00, 1.951464796845261e+00, 9.235551182298219e-01, -4.547595684405527e-01, 5.483901990468679e-01, 2.676768267227092e+00, 1.628492025460766e+00, 1.082640770639037e+00, 1.200242235543041e+00, 1.170253284534147e+00, 9.830953110084975e-01, 1.611920474988965e+00, 7.335776280452331e-01, 1.752093011118415e+00, 7.599245757728847e-01, 1.162216785752179e+00, 1.344199416169295e+00, 6.067608608023831e-01, 1.332823085602808e+00, 6.293513824051717e-01, 1.776469103729135e+00, 2.070319737599387e+00, 1.426422715077676e+00, 7.582647394752894e-01, 7.481741358503037e-01, 3.161448621735120e-01, 1.469664838565292e+00, 1.462864611019953e+00, 2.364378023265916e+00, 2.412316229546493e+00, 1.886909761994944e+00, 4.795606897538720e-01, 1.557228213477561e+00, 2.969978443072841e+00, 1.380887873756561e+00, 7.036606900291347e-01, 5.618974958060561e-01, 1.783410008716327e+00, 6.155605342968521e-01, 1.277656951921095e+00, 7.875386979571617e-01, 1.315572659491591e+00, 1.108435356438292e+00, 1.240601503759398e+00, 2.692585701952050e+00, 8.066346920500574e-01, 2.710132477432706e+00, 1.353065196421966e+00, 2.136429373031057e+00, 1.696350695922508e+00, 1.064085129284803e+00, 1.742100010600167e+00, 1.773158265227497e+00, 1.907416861223764e+00, 1.386255118779422e+00, 1.134451518143202e+00, 1.620690785738459e+00, 1.236231310793308e+00, 3.045247781874461e+00, 9.254980109861172e-01, 3.553790508973430e+00, 1.947565837772003e+00, 6.896616424567550e-01, 3.514779456871014e+00, 9.471412985327701e-01, 8.438148890432022e-01, 1.240601503759398e+00, 1.074757049899153e+00, 1.290661794916045e+00, 6.815869917319851e-01, 1.060237228303246e+00, 2.495459602552640e+00, 1.826680519881494e+00, 7.419609254368388e-01, 1.271597004189300e+00, 2.134591858953633e+00, 1.612052747140296e+00, 4.102979595831177e+00, 3.734083552215247e+00, -1.516362981857793e+00, 4.782793066678352e-01, 2.030044215899137e+00, 1.454962309816138e+00, 2.558219660425472e+00, 1.324139111404928e+00, 2.071197576329220e+00, 8.500341404689964e-01, 1.667171970187183e+00, 4.203340584602143e-01, 1.126287917354113e+00, 2.764772895450710e+00, 2.529826942314353e+00, 2.337331415464537e+00, 2.550473348246225e+00, 1.368864122339396e+00, 2.167661061102395e+00, 1.009940926916004e+00, 1.079035400566485e+00, 1.071661610590156e+00, 1.612265179096009e+00, 1.342997387627451e+00, 1.174629087062636e+00, 6.902679399392079e-01, -1.081614478555665e+00, 3.731141893997991e-01, 6.797186036411910e-01, 1.275221345905082e+00, 1.202961036231835e+00, 1.952926355372183e+00, 4.055466723781715e+00, 1.119239114001196e+00, 7.155831225082939e-01, 1.087701627298507e+00, 5.373104630322411e-01, 7.719091131674002e-01, 5.519736816423684e-01, 9.862237458634981e-01, 1.233519672774003e+00, 2.021525162757810e+00, 1.248164028872766e+00, 1.123850446039664e+00, 3.910579635296551e-01, 3.115906625704134e-01, 9.707025603254121e-01, 9.086242108499776e-01, 1.925937684193619e+00, 1.965691460423209e+00, 1.240601503759398e+00, 1.997437263180837e+00, 1.229331923205712e+00, 2.572495792772957e+00, 7.659229992474220e-01, 2.669325697618689e+00, 2.126137260553882e+00, 1.637126025168430e+00, 1.105102166358410e+00, 2.412320080572163e+00, 1.348133116003430e+00, 6.564641522098736e-01, 2.150933183517578e+00, 3.034989648078221e+00, 1.323976577847077e+00, 2.202071332926767e+00, 3.646495805013788e+00, 1.780025446917391e+00, 4.730445238534057e-01, 6.812512474748402e-01, 3.932981285407161e-01, 1.205340751902882e+00, 7.490403953129454e-01, 1.240601503759398e+00, 1.330016563744590e+00, 1.082234193516542e+00, 3.792773012964645e+00, 1.890170513871214e+00, 2.068872090031467e+00, 2.189611815578941e+00, 1.101817659276316e+00, 3.035896190695815e+00, 2.469655735485671e+00, 2.835648399686041e+00, 5.368066198617631e+00, -7.456219190033293e-01, 1.162810361068262e+00, 4.687219209210281e-01, 1.679710346714948e+00, 1.959385822986569e+00, 4.729493654285057e+00, 4.733874728224771e+00, 3.226448337632819e+00, 5.018439087447748e-02, 2.866217335842844e-01, 7.725465521987518e-01, 1.397270738595829e+00, 2.666736798070421e+00, 2.399089533756461e+00, 2.145114942362359e+00, 2.008859583898147e+00, 1.129983641320960e+00, 2.182328529251604e+00, 6.070284399561069e-01, 1.258878331683439e+00, 1.035874198190823e+00, 1.708186035511032e+00, 2.110834708671427e+00, 2.319989680484862e+00, 1.922963844380368e+00, 1.853520881107791e+00, 1.866419681302586e-01, 7.834405940244017e-01, 1.332248084956029e+00, 2.423872328251458e+00, 3.853131530865181e+00, 2.270094111156064e+00, 1.126736003173811e+00, 3.112565993245826e+00, 3.034027019297835e+00, 1.973677190441325e+00, 9.914512054379701e-01, 6.484144219610860e-01, 1.846895258033538e+00, 2.164888867790132e+00, 2.179011889808654e+00, 1.465806065468134e+00, 8.217264025214048e-01, 1.008114927824556e+00, 4.900381294484314e-01, 7.573145003608018e-01, 1.332446770741005e+00, 8.891641342407338e-01, 1.236789061846946e+00, 2.160639720003525e+00, 6.513430286880048e-01, 7.990417056579718e-01, 1.041169930859455e+00, 5.906303864353677e-01, 9.706874726043319e-01, 1.248788325806907e+00, 1.478538188473618e+00, 1.028955575519701e+00, 6.363205906344024e-01, 1.352468033781689e+00, 1.932469570503060e+00, 2.746325115851711e+00, 2.462656775425291e+00, 3.252949151994218e+00, 3.120043473871230e+00, 3.418337321707216e+00, 1.693423037045331e+00, 1.714820682767000e+00, 1.490250062993904e+00, 9.965136064597585e-01, 9.911476429393591e-01, 9.835431491660156e-01, 1.311235442616334e+00, 1.365906957225166e+00, 1.715796547770714e+00, 1.014966719939369e+00, 3.245398733873247e+00, 1.885518806965189e+00, 8.009978470749392e-01, 2.248139847266226e+00, 1.311348607236674e+00, 2.503593636408671e+00, 2.511532678280433e+00, -8.717354279693271e-02, 1.804433616032398e-01, 2.160872622941043e-02, 5.547785534801323e-01, 2.191482039956000e+00, 6.162073623270955e+00, 3.188652009819490e+00, 2.843476855950921e+00, 3.165688175895244e+00, 2.326604271162782e-01, 1.393159419930336e+00, 5.641203259816505e-01, 5.760272471343880e+00, 4.560064098339004e+00, 3.785853317472250e+00, 3.300244343306416e+00, 2.351149630560837e+00, 1.249231361137702e+00, 1.970929667132181e+00, 1.257181714036601e+00, 2.747074170153176e+00, 1.904553180049174e+00, 2.473621332804691e+00, 1.551565822041362e+00, 3.438066828796295e+00, 1.179722289000976e+00, -2.248980428897610e-01, 6.466355815177989e-01, 1.055577133025369e+00, 2.166367411618181e+00, 2.797865136533541e+00, 3.376593450141814e+00, 1.381135414714045e+00, 3.629409247471747e+00, 2.060787117626820e+00, 1.329620514993296e+00, 2.400839946427494e+00, 2.191016270406275e+00, 1.489573237542201e+00, 1.570482806219652e+00, 1.605590286659707e+00, 2.332391061157057e+00, 1.848319974857031e+00, 8.757801279852345e-01, 8.097433089354077e-01, 7.040568742026911e-01, 1.345786267601447e+00, 2.052381416839664e+00, 1.118054070121249e+00, 3.077665917663517e+00, 2.179953629745207e+00, 3.359422276724137e+00, 9.623190040177477e-01, 1.588707368639722e+00, 7.976247764406930e-01, 1.379845294123027e+00, 2.281272970314109e+00, 1.665790602906990e+00, 1.223900497893324e+00, 7.439257662375498e-01, 1.355971391283943e+00, 1.043385426656552e+00, 4.831010114993687e+00, 2.805021679456345e+00, 2.271223828019251e+00, 2.846553777201864e+00, 2.167706891823888e+00, 1.498789964786214e+00, 1.270092801929931e+00, 6.534557668912585e-01, 3.352247997768289e-01, 6.976576904850246e-01, 1.458472481728744e+00, 2.060597131465174e+00, 2.354163605689743e+00, 2.498903482362910e+00, 9.455664500017525e-01, 2.727029537956263e+00, 2.913736304205539e+00, 1.640930975816980e-01, 1.908296769581523e-01, 5.505110084089081e-01, 1.812949138646192e+00, 1.590762882060387e+00, 6.614187034546540e-01, 5.317936567632751e-01, 3.506766059819216e-01, -4.125409892394979e-02, 2.357685593495927e-01, 1.545596117725862e+00, 6.076650692981359e-01, 2.178468917917764e+00, 1.048054190595421e+00, 1.296308851810279e+00, 8.719711794121202e-01, -4.140262867537212e-01, 1.611067933248023e+00, 8.993222853585869e-01, 2.789701145160072e+00, 1.436946589045489e+00, 1.362938591021341e+00, 1.064103736124921e+00, 1.732299713156873e+00, 4.644322393576558e-01, 7.555809837499864e-01, 6.159688522012084e-01, 1.337212139563436e+00, 1.292143320058071e+00, 1.280523028937967e+00, 9.100326168620497e-01, 9.582011562003703e-01, 4.269206125246301e-01, 1.302745372422883e+00, 2.129760299712127e+00, 3.250209793392187e-01, 9.941785466486219e-01, 5.849416972925265e-01, 1.348500041945958e+00, 1.520089806816566e+00, 1.644846413178048e+00, 8.743153284720365e-01, 1.462166615068583e+00, 1.252289089550947e+00, 1.547954167667252e+00, 1.161341109050607e+00, 1.606946686849294e+00, 2.126084234544211e+00, 3.208024650297840e-01, 4.934575228633781e-01, 1.139858775740935e+00, 1.196814861159550e+00, 1.327757554142395e+00, 1.022300133952348e+00, 1.469250597527443e+00, 1.215971549149239e+00, 6.923360474456187e-01, 5.888438734077818e-01, 1.099212799777594e+00, 8.306508188038169e-01, 1.711617007184554e+00, 7.085603819178810e-01, 1.477887184749075e+00, 1.240139593416967e+00, 1.036123658067348e+00, 1.322170083062310e+00, 1.546954575240259e+00, 1.545967300777366e+00, 3.698421853018372e-01, 1.191321068034483e+00, 7.711023237114177e-01, 1.091352518989318e+00, 4.942839353931689e-01, 8.780703610640878e-01, 1.585901747025646e+00, 1.689394938526505e+00, 1.512752177870681e+00, 1.806420572472396e-01, 1.300797691481127e+00, 1.466692071950239e+00, 1.544879189397776e+00, 2.311161847016238e+00, 8.000816953716225e-01, 1.242303116933701e+00, 4.502712466139644e-01, 3.305944898771712e-01, 9.661028318326670e-01, 4.394963325937475e-01, 6.543555251018079e-01, 7.978941417800112e-01, 1.315820059156716e-01, 5.220483230054555e-01, 1.609099265799533e+00, 8.473167007108343e-01, 2.802138869142791e-01, 4.264027137236285e-01, 2.568207445767997e+00, 1.290986487198053e+00, 8.146923395515041e-01, 1.605526499101357e+00, 1.236015218022918e+00, 2.073783076920019e+00, -7.980508807407809e-01, 6.183308233711882e-01, 8.046288861867973e-01, 1.503365627403796e-01, 1.725762506871189e+00, 3.459216036199793e-01, 3.990604501634510e-01, 8.309797849174763e-01, 7.625051324706189e-01, 1.186367845375367e+00, 9.356758649854030e-01, 2.244981712588274e+00, 1.698811220187758e+00, 1.539518793185408e+00, 1.450141160339689e+00, 1.400704108904067e+00, 2.717449938939043e-01, 5.124862499565528e-01, 2.677740558589397e+00, 2.509241259614382e+00, 1.419681312797760e+00, 1.902158246699869e+00, 1.302787032719863e+00, 9.014917795041957e-01, 1.832149323504998e+00, 1.519952516770842e+00, 1.624768290545389e+00, 1.038535489245291e+00, 8.886304029575507e-01, 1.393546358861807e+00, 2.554939194827081e+00, 9.994018974351006e-01, 1.439380954803295e+00, 8.542264019663203e-01, 1.138399868420127e+00, 5.038751715059129e-01, 1.093757387913032e+00, 1.927040502906571e+00, 1.123652739221441e+00, 6.545132613357709e-01, 1.119877279672966e+00, 1.010719601695871e+00, 7.676921051344460e-01, 2.651424881241985e+00, 1.440620016984145e+00, 1.619080066829328e+00, 2.114396597266626e+00, 1.384081501157486e+00, 3.473353128310390e-01, 1.063693786456684e+00, 1.223464906950213e+00, 6.326039142836465e-01, 3.553719302028716e-01, 1.460133259552040e+00, 1.485323426408395e+00, 3.030869187465827e-01, -6.536662951605682e-02, 7.288797789890092e-01, 2.268555139935092e+00, 3.335899389447136e-01, 1.766106420336291e+00, 3.394774118748405e-01, 1.297436800924065e+00, 1.324649402952152e+00, 1.283087954651580e+00, 2.864870454373794e+00, 1.043921480477850e+00, 1.727748423654917e+00, 1.089985394428349e+00, 1.682676953431073e+00, 5.628267649211591e-01, 1.345574637882677e+00, 2.020758598251335e+00, 2.308400573869275e+00, 9.417247344187953e-01, 7.250043658144283e-01, 2.196889192065798e-01, 1.990217436775617e-01, 3.401073138230470e-01, 7.824152664733278e-01, 9.483964791637185e-01, 3.233103245846676e-01, 7.086812743989982e-01, 9.804467317255908e-01, 8.190821573022591e-01, 2.012631475641320e-01, 5.668611234731088e-01, 7.708258470344730e-01, 5.072646444424109e-02, 1.106206778093450e+00, 1.560451763888616e-01, 1.173215662117980e+00, 1.893266387903599e+00, 1.591843848405492e+00, 3.251616865453608e-01, 7.271965991084799e-01, 1.882086024816783e+00, 5.821276277049157e-01, 5.724047200512702e-01, 4.089184200348356e-01, 3.087672055329654e-01, 7.159075728171868e-01, 1.477964950158634e+00, 9.774904539474720e-01, 1.052803334717413e+00, 9.668650898365482e-01, 1.025792829577146e+00, 9.031121314435006e-01, 4.628777356570808e-01, 6.865315052866354e-01, 8.648715453600010e-01, 8.665120515498096e-01, 1.211422890068354e+00, 1.502423580754788e+00, 3.086022275857743e+00, 3.628415508343748e-01, 4.455642356160727e-01, 1.321139823744981e+00, 1.539996143782505e+00, 9.102630043932206e-01, 9.592003031491829e-01, 1.378350421300381e+00, 6.496759416535723e-01, 8.851152292851795e-01, 5.009173281416650e-01, 8.033496203531615e-01, 1.813061550686377e-01, 6.738554231889947e-01, 6.427896006207262e-01, 1.714100889441238e+00, 1.427044149318227e+00, 3.430799475327018e-01, 7.240668172001867e-01, 1.435973448111302e+00, 1.243896326773425e+00, 3.071855721627841e-01, 1.104732444211661e+00, 1.818414832283975e+00, 1.664824656830605e+00, 8.779981989806376e-01, 1.495020227167682e+00, 1.051784232889134e+00, 1.083059044559836e+00, 1.606762882122109e+00, 1.352410220423757e+00, 6.585183667879376e-01, 1.216900026678944e+00, 9.947369052050467e-02, 1.242497845503460e+00, 1.035671825692625e+00, 4.139272624171430e-01, 2.531931881828636e-01, 1.668572554806663e+00, 1.020383962130426e+00, 9.196771808574546e-01, 1.184939965803737e+00, 1.225492105439035e+00, 1.776172730796187e+00, 8.551988439541193e-01, 1.023095070196977e-01, 9.084252137157875e-01, 3.056487546582065e-01, 9.476504856717655e-01, 8.371838356122916e-01, 6.744347434090358e-01, 4.347447813730567e-01, 9.560324435802027e-01, 4.343501163338961e-01, 1.237574542999082e+00, 1.060830287550587e+00, 1.502886199028527e+00, 8.938171069639166e-01, 8.453332181356844e-02, 1.484578692460006e-01, 1.066139043866321e+00, 5.370175349533958e-01, 3.987886872880712e-01, 7.693023955087502e-01, 4.709719603954118e-01, 1.302104944163686e+00, 7.520591739797509e-01, 9.900499371550946e-01, -4.713681850558042e-02, 3.031112506606997e-02, 8.977790578606090e-01, 9.606404027894095e-01, 4.411327556606111e-01, 1.095334891381394e+00, 1.302770842418150e+00, 1.375069297952156e+00, 7.211100516692773e-01, 1.379328797625925e+00, 9.453006441805579e-01, 6.790630880047231e-01, 3.053526898771073e-01, 8.067352943318175e-01, 9.793885227604460e-01, 7.652098175796782e-01, 1.969417216694734e+00, 3.810555323463213e-01, 3.690325231845366e-01, 1.067883808520085e+00, 5.612552454046881e-01, 4.590551928804401e-01, 2.038141868825279e+00, 1.649634567655343e+00, 8.351397717788736e-01, 2.382029906858192e-01, 7.714017593932549e-01, 9.979898576500035e-01, 1.095657411019971e+00, 7.281855904659502e-01, 2.113496446443585e+00, 1.284195240417183e+00, 8.110196600257867e-01, 1.056515277611249e+00, 8.954360068843989e-01, 1.329680763484655e+00, 5.149535920832582e-01, 1.512662769564208e-02, 1.893482479965755e+00, 8.828106778745568e-01, 1.040153270663341e+00, 1.208776689491473e+00, 6.209986631708371e-01, 1.192382693660542e+00, 6.949579577525928e-01, 1.588666837703485e+00, 1.225729872987701e+00, 1.019370623708199e+00, 1.317741926911336e+00, -9.588244236093373e-02, 1.167142049171930e+00, 1.975292070428810e-01, 7.709114490922844e-01, 1.398082876363793e-01, 1.089334690353751e+00, 7.705169854219220e-01, 1.439330597595306e+00, 1.321105223996803e+00, 2.032550683400699e+00, 1.689914871506691e+00, 1.704719136594542e-01, 1.070220465747739e+00, 1.948350967272811e+00, 1.544549080024120e-01, 2.298732994604105e-01, -7.753828209356077e-01, 9.867578283434397e-01, 3.243345685128816e-01, 1.822554752166407e+00, 1.803816247474857e+00, 1.405213004422802e-01, 6.071910513952505e-01, 1.238914816425424e+00, 1.356799346312380e-01, 1.132662901274867e+00, 2.329498641198058e-01, 1.266006173882344e+00, 9.061448670712765e-01, 3.836334801167038e-01, 1.535139525668978e+00, 8.508421410775924e-02, 7.376734247434723e-01, -7.365919038662261e-02, 7.596788618011487e-01, 2.120775875197018e-01, 1.572814505136225e-01, 2.146121609508162e-01, 1.350995933850765e+00, 5.823097773385683e-01, 9.646583837948456e-01, 9.525823032973664e-01, 9.890709186568906e-01, 2.210149008738392e+00, 2.061894717495341e+00, 3.387351817602562e-01, 1.375358085627151e+00, 2.174750533598435e-01, 3.013348961711759e-01, 9.961573980763700e-01, 1.158777002749694e+00, -9.639671531839697e-02, 2.602475970223802e-01, 2.206023250593087e-01, 6.078863695911025e-01, 2.551098427412394e-01, 1.224265312537173e+00, 1.564386470976149e+00, 1.240601503759398e+00, 4.708566538487147e-01, 1.888283973213027e-01, -2.894989692367078e-02, 1.400046109486298e+00, 6.459931973945920e-01, 2.779909723432034e-01, 2.968306028733947e-01, 2.265786439217192e-01, 7.304562799229412e-02, 5.773915349683002e-02, 1.772361881431847e-01, 5.566546250671011e-01, 9.810208374241872e-01, 1.508261800199496e+00, 1.301833025009961e+00, 1.551520897537669e+00, 1.633133050317024e+00, 7.077648217136780e-01, 8.428708423304724e-01, 1.508605785790207e+00, 3.549589292696666e-01, 2.007362920611263e-01, 1.240601503759398e+00, 1.608689010250152e+00, 1.135086044982250e+00, 3.000549700007254e-01, 1.243496142009166e+00, 1.871486706555540e+00, 6.973196634227359e-01, -4.307744337433196e-01, 1.155687488434413e+00, 2.017662218727716e+00, 7.747716036730086e-02, 4.100190302225439e-01, 8.227395457925185e-01, 4.882072025170975e-01, 2.251221721546218e-01, 1.330114711879004e+00, 2.178602764165694e+00, 1.535348607558353e-01, 1.965532397600591e-01, 6.827335651445247e-01, 6.045295670071676e-01, 3.824812773657282e-01, 9.715711640128536e-01, 4.702851705414852e-01, 1.477644790027992e-01, 9.664297544911447e-01, 1.118100308488728e+00, 1.091715972492973e+00, 1.205602193528639e+00, 1.240015519165292e+00, 1.029945309764754e-01, 8.977700822026223e-01, 7.255172054457589e-01, 3.341837684703039e-01, 4.655010507511950e-01, 1.214998436941426e+00, 1.009151316650882e+00, 9.260158936078936e-01, 5.578021627799597e-02, -2.730374827961812e-02, 2.867736324243438e+00, 1.232822389948482e+00, 8.121038980880827e-01, 1.315371689269290e+00, 1.308803863499725e+00, 2.556099262183542e+00, 1.638333825498161e+00, 9.688063625921732e-01, 5.415884335679383e-01, 4.127634780423217e-01, 1.613556885857149e-01, 1.368578685166717e-01, 4.319727294371600e-01, 9.198501840624026e-01, -6.205964492814110e-01, 3.472489960720984e-01, 1.720259042900503e-01, 7.419107113713006e-01, -1.494307630917276e-02, 1.249590803609523e+00, 1.118979198514252e+00, 6.471228354425940e-01, 1.037590113221223e+00, 1.039710328621156e+00, 7.701304937590223e-01, 3.398040367463211e-01, -9.229463007215592e-02, 1.565130538659265e-01, -2.366828994206194e-01, 3.079660750274053e-01, 1.977155481889293e+00, 1.663212938638517e-01, 1.185873058055360e+00, 1.212203764842766e-01, 1.999369271302143e+00, 4.241185001629604e-01, 2.160771578775734e+00, 2.141606929784122e+00, 1.027477404051500e+00, 2.051564715286884e-01, 4.483626896576390e-01, 6.194967119971508e-01, 8.577700330462642e-01, 2.732566585676156e-01, 1.396741160840384e+00, 1.996546985536383e+00, 1.157206804361065e+00, 8.012466191973285e-02, 9.837053300060797e-01, 5.552268368363132e-01, 3.120315048379440e-01, 3.834630073398789e-01, 6.257656538956828e-01, 2.077950221495007e-01, 3.475485022496452e-01, -7.621557506150479e-01, 1.086306901110582e+00, 5.234526346872194e-01, 3.350249342652768e+00, 7.969835456347825e-01, 8.811992717499010e-01, 1.662873765951544e+00, 4.964705342302115e-01, 1.734859686793069e+00, 1.023995385598313e+00, 7.108463239060886e-01, 2.637713040181985e+00, 1.029326016358367e+00, 1.134222950948798e+00, 5.944114009541749e-01, 9.659486606360922e-01, 2.329417270304461e+00, 8.041864060807800e-01, 9.676860014688726e-01, 2.469061308307174e+00, 1.121162141906641e+00, 1.570223163764195e+00, 1.435449740099462e+00, 1.197375508962681e+00, 1.243377628371771e+00, 1.955998033088798e+00, 6.955283678566645e-01, 1.522254407472327e+00, 6.883676775070338e-01, 5.197224685316000e-01, 2.363513953521438e+00, 1.713093279966808e+00, 2.564128479684146e-01, 2.100937407731252e+00, 9.795705756919483e-01, 1.960503891543817e+00, 1.256287684526738e+00, 1.340801720494918e+00, 3.821609811724013e-01, 6.037542707296192e-01, 1.236642719844909e+00, 1.190735422709122e+00, 8.314451176802157e-01, 7.052094030386964e-01, 6.070724955252639e-01, 1.324659308307225e+00, 5.217383611699316e-01, 4.964479038812418e-01, 1.327362045663756e+00, 3.264328562745689e+00, 1.940877174231856e+00, 1.432924089618202e+00, 1.320894134135382e+00, 1.241408435034623e+00, 9.776357336701719e-01, 1.010535662126219e+00, 2.354443408855002e+00, 9.157725525787251e-01, 9.480393360331133e-01, 2.012577579084944e+00, 9.195033626651342e-01, 1.749274537046269e+00, 8.630105869865864e-01, 1.620304834228240e+00, 1.247196564207944e+00, 7.709842172583314e-01, 3.377888364610103e+00, 1.636729729808239e+00, 5.461756465481296e-01, 9.259087683356582e-01, 6.926546278989574e-01, 1.232093519437758e+00, 4.654772513901675e-01, 1.080308005498888e+00, 1.402316696616410e+00, 1.459222708553614e+00, 8.191754567229587e-01, 1.493343421376780e+00, 1.687331395069470e+00, 3.600331460709923e-01, 6.505161422642051e-01, 5.895722748125231e-01, 1.667402188413780e+00, 1.942915130889646e+00, 8.608328137423372e-01, 7.015627379656209e-01, 3.002181157744283e-01, 4.562679277779714e-01, 3.088015441768486e-01, 2.188778001754207e+00, 2.874624139608224e-01, 1.254421023543561e+00, 1.500219498893305e+00, 6.028668520976163e-01, 6.866175681121143e-01, 3.576137021544946e-01, 1.317833302931281e+00, 2.224906463926232e+00, 1.274088669718293e+00, 2.444113163626651e+00, 2.530407513146673e+00, -2.251581873459004e-01, 1.358301469849943e-01, 2.218633899644497e+00, 2.553224398405235e+00, 5.755375557120112e-01, 1.082057188467946e+00, -7.946065921738398e-01, 1.714504619762816e+00, 1.839577863667050e-01, 1.317090750091854e+00, 1.914639811225939e+00, -4.158998733127771e-01, -2.684668036265170e-01, 1.141730591282226e+00, 2.335355547126336e+00, 2.925892506596262e-01, 2.581174145683283e+00, 6.329190753942947e-01, 1.270184088184238e+00, 1.071984466386425e+00, 1.668840602455859e+00, 7.374915099632957e-01, 2.162020676336748e+00, 1.690229530643930e+00, 1.943262059409481e+00, 4.111499485037506e-01, 5.430579364126541e-01, 1.327096755504040e+00, 3.060617048844638e+00, 1.156792760580614e+00, 1.936584636446857e+00, 1.729773711693407e+00, 1.604472645894946e+00, 2.314134468167677e+00, 2.402881128880028e+00, -3.602725990841872e-01, 2.215413025712811e+00, 5.712186060127541e-01, 2.789256159964050e+00, 8.033606109482720e-02, 4.288695547863462e-01, 2.496757329285292e+00, 8.792959683911172e-01, 1.201348271770828e+00, 5.256006463789050e-01, 6.358993361917610e-01, 3.195548330803053e+00, 8.846324426350738e-02, 1.736669979639151e+00, 1.212481299814284e+00, 8.452449823066365e-01, 1.507124390846619e+00, 1.283572861759274e+00, 1.103495860141557e+00, 1.445478634304683e+00, 1.117425582962378e+00, 2.994486183240872e+00, 1.642497198885352e+00, 1.240601503759398e+00, 1.803853641062202e+00, 1.200973411067360e+00, 1.190201304962342e+00, 7.008877236663138e-01, 8.072421304402840e-01, 1.076627369161761e+00, 2.091537816188281e+00, 9.375842457286994e-01, 7.214916985366150e-01, 2.603118371127266e-01, 1.405292898790549e+00, 2.024387070900060e+00, 1.656957636342824e+00, 1.371819292866991e+00, 1.023914443628370e+00, 5.872567032131543e-01, 9.302116629154975e-01, 2.819131436891575e-01, 9.221402580525920e-01, 6.052621237918155e-01, 8.449806161217603e-01, 3.694524453442122e-01, 8.471047297459964e-01, 8.967842241450561e-01, 4.135309885558491e-01, 1.140148995247066e-01, 1.326457421859716e+00, 1.588016405219229e-01, 8.585052360174247e-01, 1.503229888138376e+00, 1.946745079324607e+00, 2.104503010148846e-01, 1.752234670924348e+00, 1.237233108821521e+00, 2.676331946557397e-01, 1.050339364715138e+00, 1.483079879690968e+00, 8.619817864590203e-01, 7.073511020038337e-01, 5.177295918499372e-01, -2.201812263051445e-01, 1.485560304170597e+00, 4.670913926377567e-01, 1.309590913159171e+00, 1.343378531673290e+00, 1.751453952841976e+00, 1.073540664689116e+00, 7.231757399167337e-01, 3.190350811684098e-02, 1.381744094426590e+00, 2.135304732206182e+00, 1.077228925621573e+00, 1.120159081859993e+00, 7.752590677340708e-01, 9.025784931217702e-01, 1.008096568651447e+00, 8.189299081115408e-01, 1.067997545615236e+00, 1.322430226354770e+00, 7.059192940129987e-01, 6.019293043422538e-01, 4.563251802702357e-01, 1.120840144281489e+00, 1.588687023021268e+00, 1.120160213004118e+00, 7.834648194366092e-01, 1.333656536536048e+00, 1.043581343567000e+00, 1.425929144226086e+00, 9.745436912094179e-01, 1.378464785415011e+00, -3.473404060814745e-01, 3.021716182595832e+00, 5.621462602718111e-01, 9.605378377532213e-01, 2.348158183195487e+00, 1.464127458813633e+00, 1.187602916123535e+00, 1.055840140127650e+00, 1.848862246633802e+00, 2.555819734559002e-01, 1.378430143363156e+00, 1.299932878984923e+00, 1.240601503759398e+00, 2.139386995497869e+00, 1.139560073510908e+00, 1.308518220053976e+00, -8.334187877131354e-02, 2.732430920923437e-01, 1.491279815779770e+00, 1.461535906764437e+00, 1.073314897316596e+00, 1.718511327256426e+00, 9.285175227492357e-01, 3.454154500400528e+00, 4.108391720951785e-01, 4.767039027200536e-01, 1.781828043040803e+00, 7.295664418983620e-01, 3.185166219648645e-01, 9.432968897686159e-01, 4.764029848216210e-01, 1.354157019620016e+00, 1.752825628666186e+00, 7.394290912197644e-01, 6.856594902660440e-01, 4.455301822084876e-01, 1.488460366421527e+00, 6.175642495902273e-01, 2.449316246377593e+00, 9.235267948184218e-01, 6.963910294355729e-01, 2.004764147986755e+00, 1.035829650007003e+00, 1.417888302614181e+00, 1.818492840871097e-01, 1.559247614224527e+00, 7.328011363122030e-01, 5.827066783441918e-01, 5.773487091703704e-02, 2.042811452812274e+00, 1.067533903958711e+00, 9.223521421180531e-01, 2.672943734458786e-01, 1.703672242812206e+00, 7.398247648193944e-01, 5.506192571181707e-01, 5.290788613366791e-01, 9.186416279264009e-01, 1.418308508167396e+00, 1.180328520295264e+00, 1.328682895407142e+00, 1.226373501875904e+00, 1.574009093441987e+00, 5.318796602229965e-01, 7.822056331733448e-01, 3.087681071619182e-01, 1.245263277956212e+00, 2.497453295444407e+00, 1.414430149524982e+00, 1.993036549089517e+00, 2.332006817130307e+00, 1.492282530280574e+00, 1.286470145514728e+00, 1.735128022042684e+00, 2.201271141890550e+00, 1.291162938342724e+00, 1.203763879767671e+00, 1.330849493763041e+00, 2.307696199009023e+00, 1.503119351660354e+00, 1.433004996846627e+00, 1.107862720362828e+00, 1.137368789743117e+00, 2.627477113219108e+00, 3.754135597922122e-01, 4.352102997697428e-01, 1.747487610826989e+00, 1.253778762081650e+00, 9.689130575195050e-01, 1.080717738150981e+00, 1.570406313619358e+00, 6.138617752466369e-02, 1.306890797357123e+00, 1.386508013173819e+00, 1.589744616965189e+00, 1.226297009376903e+00, 1.271853676629484e+00, 9.445082503901753e-01, 1.240590345677367e+00, 1.340103087052515e+00, 1.173589127985158e+00, 8.777036413364466e-01, 3.447320850416871e-01, 1.176061798147224e+00, 1.483910430862525e+00, 8.026289024813090e-01, 1.182614646440405e+00, 1.353138090815899e+00, 6.948912138951622e-01, 7.119561301176575e-01, 9.400076119951373e-01, 1.916264039532581e-01, 2.180187301667209e-01, 7.307271951666778e-01, 1.507679091440747e+00, 1.721007393882129e+00, 1.463769009101909e+00, 4.101865149983798e-01, 6.974242286873604e-01, 5.423637223988935e-01, 2.917230787071156e-01, 6.020012053014363e-01, 1.582695302128555e-01, 4.506504127911092e-01, -3.844228714748098e-01, 1.118935063170591e+00, 2.679228345647231e-01, 4.632191483359366e-01, 5.288375285785981e-01, 6.496129288387104e-01, 6.355021402348491e-01, 9.023504365564321e-01, 1.626050455211976e+00, 7.586086231368677e-01, -8.868009572901357e-01, 2.234003628523944e+00, 7.787681760942889e-01, 5.775323470154049e-01, 5.944292803375195e-01, 1.599166724305509e+00, 1.347422855650415e+00, 8.855815516182822e-01, 1.752623155442945e+00, 1.021751365465377e+00, 6.489682069577952e-01, 4.439893922302297e-01, 1.145774157017403e+00, 5.296630287869496e-01, 5.014974785225298e-01, 1.356462997617631e+00, 1.735775170158497e-01, 1.333553919506826e+00, 3.713475569855846e-01, 1.382813216138171e+00, 3.494190101400144e-01, 1.240601503759398e+00, 1.524260339291208e+00, 3.158209252412420e+00, 7.396471265303700e-01, 1.835311764658059e+00, 1.273550164671004e+00, 1.633242649559598e+00, 1.302481368821053e+00, 1.714795713012729e+00, 1.200295658109423e+00, 1.850757244898241e+00, 8.168938517637442e-01, 1.064506290679531e+00, 1.209621620748652e+00, 3.455335655191688e-01, 6.882582452353857e-01, 1.352402587878901e+00, 6.209748765308266e-01, 7.116567999313362e-01, 1.383118850441762e+00, 1.051909192989311e+00, 1.218340598875740e+00, 1.364962626394537e+00, 1.260305246103044e+00, 1.067759690779359e+00, 1.108112060858468e+00, 1.225727632206300e+00, 1.260012700754615e+00, 1.114488013752292e+00, -4.249261126522240e-01, 1.678219255058050e-01, 1.245063498603487e+00, 3.278916567817863e-01, 3.165620876612859e-01, 1.675585355189777e+00, 1.301905129340732e+00, 1.382307641980171e+00, 8.545051544265231e-01, 6.093885154608226e-01, 5.963683546588857e-01, 1.040523095741617e+00, 5.281012666843334e-01, 9.519026341876633e-01, 1.115033705067818e+00, 1.139682886581443e+00, 9.736250092085107e-01, 3.367144743806110e+00, 2.921238861598717e-01, -7.814729844370765e-01, 1.908163240766708e+00, 1.598812213190508e+00, 1.375396182015557e+00, 2.719976254806560e-01, 1.654472757354456e+00, 2.128926900936125e+00, 1.093528783405647e+00, 2.641939549981315e+00, 6.555210614148187e-01, 3.420616110010566e-01, 1.062853956437618e+00, 1.480796443291963e+00, 2.430983132077128e+00, 1.133855281144059e+00, 1.731219957159448e+00, 2.403557236028883e+00, 6.759008510958636e-01, 7.808169437837165e-01, 1.220047587033468e+00, 1.131212298072179e+00, 1.109050630713767e+00, 1.322523787723773e+00, 3.895561822962509e-01, 1.049250366347373e+00, 8.922835643009539e-01, 2.457506641091598e+00, 3.043591836196028e-01, 1.100874758187957e+00, 4.230449113477403e-01, 5.127139216258149e-01, 2.052847761397504e+00, 2.961746192861017e-01, 4.126234571232431e-01, 1.751717122615955e+00, 1.240154412823881e+00, 1.240601503759398e+00, 1.609482684147077e+00, 1.769708376495441e+00, 1.173379766779210e+00, 1.603133632666515e-01, 5.347012257438123e-01, 6.390776285178877e-01, 2.181833354749469e+00, 1.352810941508696e+00, 1.295253244426930e+00, 3.103135976342245e+00, 5.573599902106583e-01, 1.241026448513149e+00, 3.249004919347374e-01, 1.033840270365875e+00, 1.770249838897910e+00, 1.106958092852717e+00, 9.051593078871989e-01, 1.606907619599671e+00, 4.408834277918314e-01, 5.709613213625455e-01, 9.983614425423682e-01, 1.023732472522774e+00, 1.296899244271873e+00, 9.985419605922362e-01, 1.351593876975048e+00, 1.113892279800411e+00, 1.240601503759398e+00, 1.061124157503652e+00, 7.069283954438367e-01, 1.515490816127938e+00, 1.347615266378082e+00, 4.798070540800131e-01, 1.298369779218726e+00, 6.481014495234684e-01, 9.889775900424089e-01, 1.030733954527326e+00, 1.967312125985768e+00, 2.130116157596143e+00, 5.816476912185476e-01, 9.086006764017754e-01, 3.353534812085901e+00, 3.078241801405641e-01, 2.911327751153860e+00, 8.325639234995051e-01, 2.821460613739685e+00, 1.325241292354421e+00, 5.385141507358225e-01, 9.761213616116499e-01, 1.871658649292466e-01, 1.419591383279227e+00, 3.703091143622068e-01, 7.525759195216745e-01, 1.901412753219615e+00, 1.365210400795740e+00, 1.695181281967824e+00, 2.056056102879622e+00, 1.200167749592213e+00, 2.988417638883495e-01, 1.457623574896978e+00, 2.320315243287598e+00, 1.229990978925595e+00, 4.517799831739805e-01, 3.592731507217762e-01, 5.888251732246894e-01, 2.927371529344567e-01, 1.209352699314238e+00, 5.698127665285851e-01, 9.564869689252147e-01, 9.634505011107861e-01, 1.166922733630136e+00, 2.994945957839705e-01, 1.858635489664386e+00, 1.292105455421956e+00, 1.762001853446905e+00, 4.416513972135061e-01, 1.354809563912866e+00, 2.447756736305456e+00, 1.124270253078364e+00, 2.905997372809611e-01, -1.896003810172642e-01, 4.871208226147331e-01, 6.463745743094848e-01, 2.894279607506499e+00, 1.240601503759398e+00, 2.750943262488927e+00, 2.698945865023707e+00, 1.147507661077590e+00, 1.241103112504617e+00, 1.635166344376690e+00, 1.206035627946584e+00, 1.902838842227915e+00, 2.934399223755111e+00, 3.518371241489398e+00, 2.263201165052584e+00, 7.661844484937634e-01, 6.104941104460829e-01, 1.606198566037847e+00, 1.158081595809562e+00, 7.721204622540523e-01, 2.029397374777516e+00, 1.142232776000233e+00, 1.740575494164264e+00, 1.237010256351176e+00, 5.658193336998456e-01, 1.743600033826878e+00, 5.986450591422711e-01, 1.240601503759398e+00, 1.546546633947029e+00, 1.240601503759398e+00, 1.264230641204664e-01, 1.347668646589383e+00, 1.232440795967864e+00, 1.672866811425207e+00, 3.046266373177396e+00, 1.088748215787864e+00, 2.477360155452836e-01, 1.880812263672603e+00, 1.102141098452868e+00, 5.458970461722057e-01, 1.147877158610547e+00, 1.177087145648742e+00, 4.350625392740710e-01, 8.732666161749886e-01, 1.537667950545286e+00, 1.855243559462634e-01, 1.033477234417679e+00, 1.018818279280792e+00, 3.427621467552434e-01, 1.081610112696252e+00, 1.199333985653811e+00, 2.134571409767164e+00, 2.196346956413187e-01, 2.842632877033267e+00, 3.744935356527013e-01, 1.028037825610601e+00, 3.429090504243787e-01, 3.491845120265981e-01, 1.696869430499735e+00, 1.185301990398960e+00, 8.990881255793021e-01, 9.806546084686332e-01, 1.272823496989714e+00, 1.262445267362579e+00, 8.172697833150172e-01, 1.049792135314843e+00, 1.416614866794302e+00, 6.826938062633264e-01, 1.047866867192344e+00, 1.129605178443027e+00, 7.579234048247480e-01, 1.129533509027474e+00, 1.101486225257127e+00, 1.095073316651157e+00, 1.111406091988918e+00, 3.387200483792929e+00, 1.201475554233274e+00, 7.720243589845376e-01, 3.629309704114280e-01, 3.996763086156465e-01, 2.636368208187543e+00, 3.000028770767318e-01, 1.034168252416751e+00, 1.302411760322316e+00, 1.796443623721770e+00, 4.720709287783166e-01, 1.256630100945831e+00, 1.590706101384565e+00, 1.240601503759398e+00, 1.356298306303902e+00, 1.269917188068113e+00, 8.480087699399456e-01, 1.444396376446046e+00, 1.654595718472144e+00, 1.218352065707779e+00, 9.122272437619451e-01, 1.336752249384997e+00, 5.642569916673489e-01, 1.040667236247196e+00, 1.294885846523989e+00, 8.840273837463801e-01, 4.797987991310763e-01, 2.113790600766507e-01, 1.073994911104761e+00, 2.787376315101590e-01, 1.068447191695528e+00, 1.531219014995550e+00, 5.981370737786692e-01, 9.386050084772182e-01, 1.255134363823026e+00, 1.875901960773638e+00, 1.240601503759398e+00, 6.959344850593036e-01, 1.233543321067955e+00, 4.665988519070874e-01, 1.389269464290218e+00, 1.144037238624001e+00, 1.436349236217299e-01, 1.527924370141763e+00, 1.102400730911415e+00, 8.972616651636854e-01, 3.377358342929862e-01, 1.647190621521920e+00, 2.491271085785430e-01, 1.141691960624389e+00, 3.453178333599006e-01, 6.967853359933026e-01, 2.398575486144324e+00, 3.585759810884779e-01, 1.948703318614469e-01, 1.852615037194467e+00, 1.004380493224168e+00, 3.706326001535898e-01, 1.222676799203917e+00, 3.020309220020642e+00, 2.556940206738664e+00, 3.185207377964044e-01, 1.077354505375311e+00, 2.323025088454724e-01, 5.784734371189825e-01, 5.805341017006771e-01, 1.748477528117521e-01, 9.308851735585697e-01, 1.302826959432980e+00, 2.386099383795251e-01, 1.869553516624459e+00, 2.298141633516344e+00, 1.678221300717827e+00, 3.937348585411468e-01, 4.277055794783395e-01, 3.111457643223519e+00, 2.902231635738033e-01, 5.304763880363583e-01, 1.621064998499589e+00, 2.736659065668622e-01, 1.585909931174550e+00, 1.974682369920124e+00, 5.035564577251940e-01, 1.098663195583297e+00, 6.429116705988003e-01, 1.158059430166501e+00, 8.659758640019972e-01, 2.504452914542374e+00, 2.060708435502770e+00, 1.675276143820245e+00, 8.073324027035318e-01, 1.258920150643495e+00, 4.308068617134740e-01, 6.083658775989473e-01, 9.630249843537798e-01, 2.168657477102322e+00, 8.709691025588030e-01, 1.240601503759398e+00, 8.312922944619296e-01, 2.917894717127512e+00, 2.121728038666658e+00, 5.191991077143566e-01, 7.971547585388825e-01, 1.671670655270188e+00, 8.968611995703555e-01, 6.326355392090875e-01, 1.942362189308812e+00, 2.244124688447203e+00, 1.782855565028355e+00, 4.328902897319071e-01, -6.388780620371021e-01, 6.415967642840317e-01, 1.305496445751792e+00, 1.715519291705267e+00, 1.717898590955048e+00, 1.493596493551585e+00, -4.442662298322664e-01, 8.962488280722162e-01, 1.756538849828130e+00, 1.995277820472891e+00, 1.240601503759398e+00, 1.696567339604151e+00, 1.250927847433480e+00, 1.011873104685879e+00, 8.122123410014959e-01, 1.184565023164776e+00, 3.947747615385896e-01, -1.227620240178447e-01, -1.888663490244278e-02, 1.453426855048614e+00, 1.499866676708454e-01, 4.813597154526810e-01, 5.953461765409118e-02, 6.772031941268261e-01, -1.042006886951380e-01, 3.911865663551801e-01, 1.334796360177228e+00, 1.120448657978864e+00, 1.271512600545538e+00, 1.981616869266002e-01, 9.621150069167617e-01, 2.760310123721652e+00, -4.299613925429480e-02, 4.647323813766804e-01, 1.030244958242491e+00, 1.893037421190330e+00, 1.473457522699579e+00, 6.699507773840684e-01, 8.247124152340324e-01, 4.963447374348884e-01, 1.381601582087592e+00, 8.420450726292777e-01, 7.516718797365212e-01, 5.724385467210760e-01, 5.767414393219886e-01, 1.532909937262624e+00, 1.165018361043917e+00, 5.229529870284487e-01, 2.170333507237519e-01, 1.037026067697226e+00, 9.152649968755528e-01, 1.537718657205019e-01, 2.947811092425535e-01, 2.592775138028892e-01, 7.807394547030394e-01, 2.136752733610303e-01, 1.089521011503175e+00, 9.485002123792237e-01, 5.014497537055168e-01, 8.067913510731111e-01, 5.886464500543226e-02, 1.021185106071604e+00, 1.541659612541730e+00, 1.408603953094889e+00, -1.890656856315134e-01, 1.219529981393588e+00, 8.012140015912951e-01, 3.197986772402091e-01, 7.280478734553326e-01, 1.559915346129544e+00, 1.430902765316914e+00, 1.240601503759398e+00, 1.282367955973485e+00, 1.211729561113156e+00, 6.984122145315194e-02, 3.993177940829260e-01, 1.844232860490203e+00, 9.995244198774285e-01, 5.478838364989485e-01, 7.036925509485541e-01, 9.823493501129610e-01, 7.385404757137756e-01, 6.751683935617306e-01, 1.906640177349830e+00, 2.946957162344176e-01, 2.040221008714718e+00, 1.173841945049848e+00, 8.979745363781535e-01, 1.182516121159939e+00, 1.294596978034567e+00, 9.224053052830962e-01, 1.027063831610844e+00, 1.435451165039604e+00, 6.628695575326998e-01, 1.240601503759398e+00, 1.738605841802846e+00, 1.268726664242679e+00, 3.630372222503266e-01, 1.890945858285596e+00, 1.259797368605846e+00, 1.370431457724330e-01, -1.141777061053092e-01, 1.660245012740333e+00, 1.592726100921255e+00, 1.814359093025278e+00, 9.455443935283253e-01, 5.928386788000808e-01, 9.429147749749829e-01, 4.072889391043820e-01, 1.126716924805618e+00, 4.328940888872547e-01, 8.801113580811054e-01, 6.144082778671006e-01, 2.142083323949173e+00, 1.871427479976315e+00, 4.394370762317606e-01, 1.132505922443408e+00, 5.931185736364005e-01, 2.401060957827038e+00, 6.527672071785783e-01, 2.481680546257822e+00, 1.539859409593120e+00, 2.380581859265121e+00, 3.865308593415619e-01, -1.624852111167830e-01, 5.930161437719962e-01, 6.425982572740234e-01, 2.009927406500726e+00, 2.457525470371062e+00, 8.570338593894736e-01, 7.436056431903280e-01, 4.789563384103908e-01, 6.723506103497072e-01, -3.570573665562923e-01, 2.497637350623449e+00, 3.608750839009356e-01, 2.933230778831682e+00, 2.744093425450301e-01, 1.298658777808299e+00, 2.071653732355935e+00, 1.651906589108640e+00, 7.396468187532910e-01, 1.508359852113887e+00, 1.919677513823385e+00, 1.189628735218399e+00, 1.802421301139427e+00, 7.914775795438883e-01, 7.103831233398246e-01, 6.191643259071256e-01, 7.233661549746988e-01, 6.015925574165858e-01, 3.193606239621579e-01, 9.585537774703126e-01, 1.824264568887203e+00, 2.272240684080568e+00, 1.273525093288757e+00, 5.446360421773360e-01, 2.216264481963655e+00, 1.036618773617615e+00, 1.253787485756208e+00, 1.370668388506686e+00, 1.734707815000095e+00, 1.811464949202174e+00, 1.131674363176844e+00, 6.447327679881183e-01, 1.584398252588780e+00, 6.028278250123965e-01, 1.750202572861218e+00, 1.183792402154139e+00, 2.201876591299677e+00, 1.450955033304587e+00, 1.901475800439143e+00, 5.689560449168594e-01, 5.167334096491588e-01, 1.364282216987521e+00, 7.690030763762847e-01, 9.805288899868243e-01, 6.975194949263964e-01, 1.202161066323218e+00, 1.776614524146430e+00, 1.394790589066667e+00, 1.427914169231006e+00, 1.393282483064294e+00, 1.091044653272145e+00, 3.692520826226630e-01, 2.581175467776886e+00, 1.131868685177861e+00, 2.010195565798822e+00, 1.275312216628349e+00, 5.309010673043142e-01, 5.375637819060096e+00, 9.243997515192998e-01, 8.431750132077743e-01, 8.478223185544921e-01, 1.347368981378305e+00, 3.459286151044914e-01, 5.717831072196553e-01, 1.818029289864413e+00, 8.299928563461350e-01, 1.527272141518448e+00, 2.279876167335960e-01, 1.620075940311379e+00, 5.708310610012552e-01, 1.513583874494666e+00, 8.660744593197506e-01, 1.255139500099327e+00, 6.974188862206949e-01, 1.414510453272799e+00, 1.540235048171991e+00, 4.850652266255234e-01, 1.895628417506864e+00, 2.376003694628912e+00, 1.848205696153593e+00, 1.010127953231893e+00, 1.878689448175234e+00, 1.161388986120316e+00, 1.889402580165205e+00, 1.439423211675743e+00, 1.655986053156187e+00, 1.442189436627811e+00, 3.300623407670607e-02, 3.232886306023131e+00, 1.360606751604213e+00, 1.596044634579605e+00, 1.481821118211228e+00, 2.056544037169742e+00, 1.606894908789112e+00, 1.263486776441252e+00, 1.950539973738573e+00, 1.563996861198476e+00, 4.116710788021901e-01, 1.382484454692626e+00, 1.667152132876009e+00, 1.462983021976823e+00, 7.115321893826571e-01, 1.362845877452430e+00, 1.453953685181749e+00, 1.980464867189300e+00, 9.537137675011895e-01, 1.140279325118952e+00, 1.165242810122508e+00, 1.888021026338335e+00, 2.706573281706751e+00, 1.400836070662182e+00, 1.317316407998155e+00, 1.333761698058920e+00, 1.481271024310382e+00, 1.381302469699003e+00, 1.087620714654858e+00, 1.800304176052036e+00, 1.131352011993191e+00, 1.497502856993657e+00, 1.040213516592213e+00, 1.271324089799489e+00, 1.262708417103516e+00, 1.935795687714306e+00, 4.138031519056511e-01, 1.105017358333373e+00, 1.465266180020508e+00, 1.060332900057486e+00, 1.420237428140789e+00, 1.035788112151026e+00, 1.170884521730814e+00, 1.338537751732767e+00, 1.243653579239367e+00, 1.156555199789212e+00, 1.317676636090372e+00, 1.255093891219249e+00, 7.469262577290152e-01, 1.130570073912321e+00, 1.330418279802180e+00, 6.004140264333738e-01, 3.355030764251975e+00, 2.275170208058265e+00, 1.557950183771585e+00, 1.476814027020209e+00, 1.606023342853243e+00, 1.880316877544922e+00, 7.828167612625491e-01, 9.672255399692330e-01, 6.887364943969586e-01, 9.968935656879392e-01, 1.443285041424564e+00, 6.367534791007359e-01, 1.186228488843673e+00, 5.211110232844894e-01, 6.831371579890771e-01, 8.479808389164148e-01, 2.337539072910959e-01, 8.745398132034350e-01, 1.284326258452070e+00, 1.757222354238759e+00, 1.396297369835895e+00, 1.186844647542991e+00, 9.142358621416229e-01, 4.398813902822707e-02, 7.968428199642893e-01, 4.141645486540226e-01, 1.100907394191197e+00, 9.748738815483512e-01, 1.445598363180547e+00, 6.580237370475129e-01, 1.280037865838398e+00, 1.020035757352808e+00, 1.993466219621205e+00, 5.455855627462491e-01, 1.469017178855469e+00, 5.958409663549563e-01, 2.251396641527052e+00, 1.287064708969537e+00, 1.557422899379432e+00, 1.134527379247874e+00, 1.120758006399164e+00, 5.121810291606040e-01, 1.217222149323742e-01, 1.776906072995711e+00, 4.886249073015168e-01, 1.487626771329343e+00, 5.597607305581638e-01, 9.845454553032675e-01, 5.725434778822068e-01, 1.453313620824925e+00, 1.629219877998484e+00, 1.262387574722011e+00, 1.152263928599692e+00, 9.910281658984180e-01, 1.159260041039093e+00, 1.309831118260937e+00, 1.216869681519403e+00, 1.308721137897584e+00, 1.321488903951803e+00, 1.193739971692706e+00, 1.425735326091436e+00, 1.264175510798075e+00, 5.943650795111154e-01, 1.188210700727436e+00, 8.489910628282735e-01, 1.095324845386721e+00, 1.435039608862683e+00, 1.769649695182531e+00, 1.936745899825463e+00, 1.429550258861226e+00, 1.108599512627083e+00, 1.458574509681159e+00, 1.592396076833146e+00, 1.751082040228272e+00, 1.314440257643858e+00, 1.280429099480567e+00, 1.296193690756863e+00, 8.952026231013227e-01, 1.240601503759398e+00, 1.053821665638231e+00, 1.010063220159020e+00, 4.738752028985491e-01, 1.447728732167624e+00, 5.973676385225508e-01, 1.665429116902202e+00, 8.678852022566822e-01, 1.825525825708535e+00, 1.375938511376521e+00, 2.251842225473638e+00, 6.062161780419487e-01, 1.035891159271490e+00, -4.512941475122378e-02, -9.856515653973323e-02, 1.491990084279906e+00, 4.432086162686819e-01, 2.409026959749745e+00, 1.738221695665982e+00, 2.413653092434125e-01, 8.114142638096067e-01, 2.162952651660156e+00, 6.472860627612433e-02, 5.608032344193674e-01, 1.299438177747942e+00, 1.229113718865518e+00, 3.178793059471003e-01, 1.521171715805451e+00, 1.220556827582715e+00, 9.112770948731773e-01, 1.342212391929644e+00, 7.264818151224516e-01, 7.633626752928908e-01, 1.361640826690962e+00, 1.516587433630999e+00, 8.637629763988133e-01, 1.301952508352318e+00, 5.707572715734666e-01, 1.036907078715136e+00, 7.319364847925107e-01, 1.507303825683623e+00, 1.696807560796203e+00, 1.806712331648032e+00, 1.792606186353987e+00, 1.579901984995176e+00, 9.712562193570197e-01, 1.214062038219704e+00, 1.186434799986224e+00, 5.732659361711259e-01, 1.497671317937915e+00, 6.558370960217020e-01, 1.086275419808600e+00, 8.352756093986466e-01, 1.264734586522529e+00, 1.872496723989697e+00, 3.147230877453506e-01, 1.688778312931362e+00, 1.326304666545353e+00, -4.681706632090248e-02, 1.792588079568620e+00, 2.181514071165146e+00, 9.351869698675608e-01, 9.991522291657274e-01, 1.059269725504594e+00, 2.112732285387711e+00, 1.311253927902930e+00, 1.576054136619538e+00, 7.604755379089643e-01, 4.933044142814106e-01, 1.177367920681597e+00, 1.396733616082118e+00, 1.685536350992120e+00, 1.345184169693688e+00, 1.326241237525335e+00, 1.075729293688970e+00, 9.955591177346821e-01, 1.365746345569965e+00, 1.469945666506859e+00, 1.328470936287380e+00, 6.177628214582485e-01, 1.449562226173569e+00, 1.242214265875154e+00, 1.229973747116504e+00, 1.312395092305388e+00, 1.210650224587886e+00, 1.575131164408342e+00, 1.125465228391240e+00, 5.134444707327088e-01, 1.362498273213426e+00, 1.149340996563732e+00, 2.065398500560043e-01, 1.434702874402036e+00, 2.152072770123398e+00, 2.276675843668112e-01, 1.463060651214698e+00, 2.354273987707194e+00, 1.414946157681514e+00, 9.139104502220379e-01, 1.488837059607502e+00, 1.353273055349651e+00, 1.129430769076959e+00, 1.716491749624129e+00, 8.291380950723169e-01, 7.161428740228166e-01, 9.574125116187755e-01, 1.517587009815994e+00, 1.543992940096542e+00, 1.057579947243343e+00, 8.734842096928829e-01, 1.053080449533672e+00, 1.094978421097745e+00, 1.772575621178350e+00, 1.315234161139449e+00, 3.232001460707890e-01, 3.072224207205662e-01, 1.242579986375986e+00, 2.773579597881808e-01, 1.731231220467547e+00, 2.964500234585421e-01, 8.512687462438318e-01, 1.870550928864555e+00, 6.071244223642457e-01, 7.080532311238376e-01, 8.846956480816313e-01, 1.323546663966403e+00, 2.058722492075035e+00, 1.878914941201675e+00, 1.135994039142787e+00, 3.775910809510707e-01, 2.054268189757948e+00, 1.240449627147711e+00, 1.184328585301862e+00, 1.370314678401751e+00, 1.003093543790014e+00, 1.328762250341737e+00, 2.005529351721036e+00, 7.964097309330784e-01, 1.030524047042172e+00, 1.771774124528446e-01, 1.817445646875289e+00, 5.058411534053536e-01, 1.200690158806546e+00, 4.448011943131148e-01, 1.634450679241837e+00, 1.123685438194297e+00, 7.222125326297035e-01, 2.151468851512377e+00, 3.200985030054154e+00, 2.052174969843907e+00, 1.194088517882063e+00, 4.781663711235244e-01, 1.106425751991462e+00, 8.123676600196987e-01, 5.130529222154827e-01, 2.381923645310486e+00, 1.489970516189266e+00, -2.626679252550003e-01, 9.493309482696437e-01, 1.399473297703535e+00, 1.500635950488369e+00, 2.157739126418807e+00, 1.276595410387487e+00, 1.431360834206804e+00, 3.886260460909198e-01, 1.269511378549018e+00, 8.523302040629946e-01, 1.304767308472664e+00, 7.579410203238377e-01, 8.310792328303743e-01, 1.227141850974104e+00, 5.723720258066155e-01, 2.654220732963739e-01, 1.706781619981347e+00, 2.265708719858867e+00, 2.000806343732568e+00, 4.667532925786961e-01, 1.718417839744034e+00, 8.828067624229432e-01, 1.932011152799012e-01, 1.517655233166252e+00, 2.518979703684037e+00, 6.725486746671577e-01, 1.773280144865448e+00, 9.556650964990778e-01, 1.020985666627737e+00, 7.793132455562622e-01, 7.014713075697309e-01, 7.311619695502988e-01, 2.688001645546971e-01, 9.204624453664507e-01, 9.549822830477757e-01, 2.693255554806546e-01, 1.804362818749792e+00, 1.324928871485900e+00, 2.688000837956143e-01, 1.567705285218360e+00, 9.154050473099717e-01, 1.044246493441639e+00, 9.598750500785820e-01, 1.203758094527829e+00, 8.453122206119073e-01, 2.379792864500182e+00, 8.047362231398457e-01, 1.822019793418785e+00, 1.069485391000570e+00, 1.556534556316278e+00, 5.329119577843162e-01, 1.335792307974879e+00, 1.557704856775739e+00, 1.572588611712443e+00, 2.064963734211105e+00, 2.046738565370788e+00, 4.521242118480842e-01, 5.525195441937121e-01, 1.412892286475470e+00, 9.715626111486618e-01, 9.562992205629520e-01, 1.374755621655898e+00, 2.077657228076534e+00, 7.586603632401264e-01, 5.478129723176450e-01, 2.977622667177749e-01, 2.161050077356452e-01, 8.968581589580314e-01, 9.314190610262818e-01, 1.240601503759398e+00, 1.050798527446732e+00, 1.221897122149633e+00, 9.971068900822765e-01, 2.438853877290493e-01, 1.331068451995233e+00, 1.528065391690780e+00, 1.363948692665071e+00, 1.365350877821253e+00, 5.793042065596488e-01, 1.283434265889671e+00, 9.983585606136908e-01, 9.273564938660551e-01, 1.805596541645477e+00, 1.486662733120948e+00, 1.370882610752285e+00, 2.319105050146653e+00, 1.263126688039616e+00, 1.140981198420078e+00, 1.063126311814671e+00, 7.671984905256661e-01, 4.413239124064008e-01, 1.188353945986258e+00, 1.240601503759398e+00, 3.311956482221973e-01, 1.236213424009545e+00, 8.298554717047896e-01, 1.605756340287197e+00, 1.351813669248769e+00, 4.120477191136871e-01, -2.927065160469197e-01, 1.374751019323867e+00, 7.888947581698256e-01, 6.960579231108889e-01, 5.570076515913858e-01, 9.858004760078620e-01, 1.303822589712506e+00, 1.204519045455159e+00, 7.248380454815695e-01, 1.371905148741029e+00, 3.792795241444342e-01, 9.250747384563848e-01, 1.881880054318027e+00, 1.776575970205919e+00, 2.314399699748789e-01, 4.664989576850120e-02, 6.509359575608960e-01, 4.055748579853098e-01, 3.830603041219578e+00, 7.775715812432739e-01, 1.423858756737755e+00, 1.079935924725958e+00, 1.273091898915957e+00, 1.536316696876603e+00, 1.498773756341779e+00, 1.195318145470983e+00, 1.418304414355346e+00, 1.156544626790657e+00, 1.941375876467036e+00, 1.008875908458452e+00, 2.335779735979910e+00, 1.587176794108734e-01, 1.282471441537739e+00, 1.335223948841463e+00, 4.386121295153287e-01, 3.866214381292288e-01, 1.450172716869116e+00, 7.321831145535869e-01, 1.738822853237407e+00, 3.181562231637629e+00, 1.236446515003882e+00, 9.145039821459110e-01, 4.597330406991819e-01, 1.162310442211041e+00, 3.871213842166770e-01, 1.216755475533418e+00, 1.147764518974873e+00, 3.660137542882250e-01, 6.110905266210265e-01, 3.379622868060786e-01, 1.107400660337444e+00, 1.659525440549516e+00, 6.306068872017397e-01, 1.417343924266818e+00, 1.018551632063140e+00, 4.312542276176919e-01, 6.629000769122740e-01, 1.025968652206468e+00, 3.456775170074657e-01, 5.248987271616444e-01, 2.390200357473002e+00, 5.276532592847379e-01, 1.414636588748478e+00, 2.034385152257187e+00, 9.465076424961530e-01, 1.824427757751697e+00, 1.929967638335339e-01, 5.840477590199066e-01, 6.101271625574908e-01, 5.731357237655049e-01, 1.560233647077851e+00, 1.525637456706273e+00, 2.044729693483714e+00, 1.244759222760451e+00, 1.506821289572069e+00, 1.195889100595225e+00, 4.227660764479120e-01, 1.233845978537717e+00, 1.886866014737442e+00, 1.026489893732089e+00, 1.464054227052286e+00, 6.109664366286955e-01, 1.509789919681932e+00, 1.606205916284679e+00, 8.205176119552974e-01, 1.308101868392187e+00, -1.927138285292845e-02, 3.218436291235782e+00, 2.146992906558876e-01, 4.240119352677955e-01, 3.402910510924721e+00, 1.428552086054297e+00, 9.481424957652572e-01, 1.615866495767991e+00, 2.219560144608784e+00, 3.902831517984822e+00, 1.036149191904529e+00, 1.731510840781591e+00, 6.547852114354243e-01, 1.587432273088760e+00, 1.437140016448848e+00, 1.483815202068308e+00, 6.791669931026230e-01, 1.143822501728102e+00, 2.352722310473911e+00, 2.115992385493629e+00, 2.434869268967267e+00, 7.093560051006236e-01, 7.112463178647624e-01, 1.096973738806192e+00, 1.232400643872692e+00, 2.269535421815315e+00, 1.182871950136394e+00, 2.624845453582811e+00, 3.199829189235011e-01, 8.326745580929668e-01, 1.054641166075205e+00, 1.312063822823170e+00, 1.623553252126050e+00, 1.499066627625119e+00, 1.810061124507290e+00, 3.728879623998989e-01, 1.474973589685787e+00, 1.577998771699280e+00, 2.187119172537719e+00, 7.934174866481769e-01, 7.538499944161859e-01, 1.122580583862597e+00, 1.248964667473180e+00, 1.301454663221774e+00, 5.769991434335935e-01, 7.679091185903897e-01, 7.113814451548653e-01, 8.769106336867367e-01, 2.893848016488255e+00, 1.239348508129833e+00, 1.722325668940881e+00, 1.136616199433351e+00, 2.136526027477858e+00, 1.641917885383403e-01, 9.331917874921888e-01, 1.449791928431706e+00, 1.572039615520858e+00, 2.161542345016620e+00, 1.443548990512307e+00, 1.664239344281766e+00, 1.441627311004946e+00, 1.605986190995387e+00, 1.473157517292641e+00, 1.827649860492395e+00, 2.223942396844503e+00, 2.058722089395064e+00, 1.203173469518940e+00, 2.253923858581213e+00, 9.491581890285984e-01, 1.170478234435601e+00, 1.173406354572593e+00, 6.261396901127810e-01, 1.339824110582175e+00, 1.062235557442441e+00, 1.264653428416858e+00, 1.506909422698745e+00, 2.020518306752925e+00, 1.241241101469360e+00, 1.579728295715598e+00, 1.243586895942584e+00, 1.434626422597097e+00, 1.720179732865166e-01, 1.647662430813817e+00, 7.469589123773498e-01, 1.502924621067646e+00, 9.093105757859983e-02, 9.535259143470318e-01, 1.284387258629762e+00, 3.034033525905266e-01, 6.865648731923271e-01, 3.782561891950377e-01, 4.291259301336550e-01, 1.156222674424935e+00, 1.011982614796598e+00, 9.511527491155778e-01, 5.212649189470746e-01, 3.532836329220477e-01, 5.320931289137124e-01, 7.874444228517328e-01, 7.570766840500369e-01, 1.856936919303025e+00, 2.014899531052899e+00, 1.578471023584236e+00, 4.497100450739001e-01, 8.717636080507302e-01, 1.394226655924979e+00, 1.553974603792396e+00, 9.450282962809560e-01, 1.590173076148001e+00, 2.123115707257044e+00, 1.246476233365980e+00, 1.273252840331803e+00, 1.101277886813766e+00, 1.757110693984547e-01, 2.582360187253610e+00, 2.968096879749321e-01, 2.080752922039061e+00, 3.167136660780468e+00, 5.295137747738594e-01, 1.048161473161889e+00, 5.714177693350542e-01, 1.198001375796965e+00, 9.020390575773384e-01, 1.379342928511891e+00, 9.911421439869645e-01, 1.157457170937380e+00, 1.263590133669884e+00, 6.581861718894104e-02, 1.852274358180832e+00, 3.385895599467164e-01, 2.426973545972652e-01, 4.538503917406729e-01, 2.436405223920146e+00, 6.571760312629555e-01, 9.998554291952829e-01, 1.378758970940204e+00, 1.707731446283710e+00, 1.814450409873527e+00, 5.020072415715436e-01, 7.937140184541687e-01, 3.405461720288215e+00, 2.687714875615395e+00, 3.837932795726282e-01, 1.807095249311983e+00, 1.817996028060194e+00, -1.217379742763964e-01, 8.448884201068406e-01, 6.897864725138929e-01, 1.541901993201097e+00, 7.240695592877563e-01, 9.674147912999129e-01, 1.188500330513524e+00, 6.069683919499440e-01, -2.764138366312648e-01, 2.680203532344931e+00, 7.786571938020208e-01, 2.006541367854900e+00, 6.633877852591926e-01, 1.045611108018228e+00, 7.080684619419008e-01, 2.687236893960171e+00, 1.200638734757893e+00, 1.353801024854944e+00, 1.651639289809639e+00, 1.040510746939842e+00, 1.531788324097932e+00, 1.057046468323880e+00, 1.284956401883660e+00, 1.206026430404879e+00, 1.047487498668712e+00, 4.218266489546738e-01, 1.757871000223568e-01, 2.392914676244144e-01, 4.989833719678251e-01, 8.602958780781587e-01, 1.488929031300534e+00, 1.622654181290771e-01, 1.636643914520754e+00, 5.754370133642339e-01, 7.769333262495048e-01, 6.225931421080210e-01, 9.135424575480900e-01, 4.729674826071334e-01, 6.882282888120401e-01, 2.359846773620456e+00, 4.306495678980333e+00, 2.079275454444012e-01, 3.604886274817398e-02, 1.102612880870984e+00, 1.793379065739087e-01, 7.283369559679104e-01, 6.308871468797379e-01, 1.447367743691325e+00, 2.703931596583914e-01, 2.097874257696337e+00, 1.235985756542022e+00, 1.085074948052307e+00, 9.081104854987541e-01, 6.161676515061605e-01, 1.408686284587593e+00, 5.741186076427869e-01, 1.570473922261748e+00, 1.504775165629785e+00, 9.721011252302699e-01, 1.477672730282306e+00, 2.237974350387245e+00, 1.427054601338440e+00, 8.382073721074540e-01, 9.875144899052674e-01, 1.276070108828027e+00, 1.188721430487818e+00, 8.429559241285934e-01, 1.034041887859353e+00, 9.610066420879489e-01, 1.528387597116577e+00, 4.497573536824459e-01, 1.809323157074417e+00, 1.182961842231022e+00, 3.821443453867915e-01, 8.660331756534407e-01, 1.160578191675544e+00, 9.793707687452037e-01, 7.315518451373851e-01, 1.158389151385783e+00, 1.314124553257373e+00, 9.225575470455794e-01, 3.714545280814890e-01, 1.463123451747018e+00, 7.462016760942707e-01, 5.659164215451549e-01, 1.216538463566693e+00, 1.388661936360518e+00, 1.416206916383943e+00, 8.421868400564008e-01, -2.032606446392808e-01, 1.062463996410390e+00, 6.067172072080524e-01, 1.604773547113997e-01, 1.496826663040334e+00, 1.680065538202787e+00, 7.020792284191082e-01, 7.131936260940082e-01, 6.295639741471237e-01, 1.337653933517158e+00, 1.327042294168426e+00, 1.121595863581758e+00, 5.980168733825917e-01, 1.466872093846388e+00, 1.071188170354841e+00, 2.239189713717214e+00, 7.808970148892679e-01, 1.272749055571736e+00, 1.032665937698396e+00, 1.517170668149342e+00, 5.913735212437330e-01, 4.872641262528850e-01, 6.418441529831838e-01, 1.713515628747531e+00, 1.786421139110308e-01, 9.453806723879715e-01, 1.319887818138880e+00, 8.967150860548190e-01, 2.038624480224172e+00, 4.467478945960923e-01, 2.126560960061858e+00, 1.313108055978282e+00, 1.363636627255330e+00, 5.011783478380147e-01, 2.836841994608917e+00, -4.032979972145741e-01, 6.625497496346847e-01, 1.148211815857515e+00, 1.027785458570543e+00, 2.001169325974932e+00, 1.231103081840711e+00, 1.487323492132326e+00, 1.196966075471878e+00, 1.977699634092375e+00, 1.101586463029570e+00, 2.382703239049187e-01, 5.999810119186246e-01, 1.755521050775284e+00, 1.406523786670387e+00, 8.174029412525926e-01, 1.571477920729224e+00, 1.204699966224475e+00, 4.398513242023450e-01, 1.311512224492553e+00, 1.389607725983857e+00, 1.115250044730967e+00, 1.451194021143710e+00, 1.136303175478987e+00, 1.321768423466608e+00, 1.297260652205374e+00, 3.430791635670608e-01, 1.122971859704792e+00, 1.022559282480103e+00, 8.117506280984336e-01, 8.011900997584914e-01, 1.309234349708182e+00, 1.466486999159567e+00, 1.788916828415694e+00, 8.684139471467152e-01, 1.678352288179283e+00, 1.530155995204802e+00, 1.136914577290580e+00, 2.717199734902927e+00, 3.291485325914218e+00, 1.397709805007521e+00, 2.328786707307371e+00, 1.752692567182427e+00, 1.638015285293192e+00, 1.676410713577643e+00, 1.690148382645545e+00, 1.442842155097610e+00, 2.097979754846991e+00, 1.166217394480380e+00, 3.425369522102437e-01, 8.600484453004164e-01, 1.372126214397456e+00, 6.907192626472726e-01, 1.832709752488758e+00, 8.946406057062262e-01, 1.163761739663577e+00, 1.873801782635545e+00, 1.490345457205056e+00, 8.325122619499817e-01, 1.503789675720909e+00, 1.460999527903758e+00, 1.410135091683425e+00, 1.444145721154606e+00, 1.400399424016241e+00, 9.708326400190288e-01, 3.338160689410482e-01, 3.909041428924443e-01, 6.577114475618195e-01, 2.404667566007649e+00, 2.917368910710496e-01, 1.072763256378523e+00, 1.193801263988043e+00, 1.005094166189089e+00, 9.876362413104415e-01, 8.018243673704761e-01, 1.178937978123460e-01, 4.348243244859803e-01, 9.818467437299027e-01, 5.045165926916784e-01, 1.296846734745412e+00, 2.709008632839972e-01, 1.577108434421217e+00, 1.047177176690158e+00, 9.285289210447374e-01, 3.352380476339439e+00, 1.067258769427895e+00, 2.019633984680396e+00, 1.084249742370222e+00, 1.408759837333445e+00, 2.368326102335809e-01, 1.369457680150647e+00, 7.815793626608752e-01, 8.680214867794493e-01, 5.707239916767821e-01, 1.492879898434589e+00, 4.690381300898823e-01, 1.885942892244209e+00, 6.515250175750554e-01, 1.689426881626580e+00, 8.535405319470346e-01, 5.411667438139066e-02, 4.470846101093296e-01, 2.133062750079190e-01, 7.289966216975236e-01, 9.176176663377306e-01, 2.003354151383966e+00, 1.598408052905149e+00, 1.047486892369033e+00, 9.329409332560827e-01, 9.386270268976609e-01, 9.577041053998019e-02, 4.207750280540250e-01, 3.380516150513080e-01, 2.542289701360814e-01, 1.361169480926862e+00, 1.688317418649082e+00, 5.309338831932099e-01, 3.147565004820547e+00, 1.189449697477576e+00, 5.804647634714337e-01, 1.289892767816645e+00, 1.844798064915550e+00, 1.896900939693086e+00, 1.943252130365281e+00, 1.599862407458582e+00, 6.812941037527275e-01, 9.532047438382248e-01, 7.230992725048028e-01, 1.693767794941756e+00, 1.557972309016656e+00, 1.544956625063195e+00, 6.602406530020536e-01, 7.530160328144263e-01, 1.497466008588296e+00, 1.310257353985824e+00, 6.442522360757929e-01, 1.921020770894172e+00, 8.884145987475992e-01, 1.272123916848176e+00, 1.357484181507605e+00, 5.211277299554292e-01, 2.524688259599961e-01, 9.476802509822443e-01, 1.317434812554321e+00, 1.025895888138728e+00, 1.240601503759398e+00, 3.920044807066955e-01, 1.240601503759398e+00, 1.622862543821454e+00, 1.247708684738275e+00, 1.010114379814005e+00, 1.257257306433684e-01, 1.328423995158194e+00, 5.647270439546489e-01, 7.213214664894764e-01, 8.074003216932668e-01, 1.609284879984974e+00, 3.236840223024821e-01, 2.670310128101018e-01, 7.972311102895281e-01, 7.904247071386128e-01, 1.848835470153099e-01, 6.045416744025170e-01, 1.370440697446006e+00, 1.305575072287223e+00, 3.583897756927933e+00, 3.617997108582764e-01, 7.850921976069025e-01, 9.075973447792443e-01, 6.461387473763386e-01, 1.014085131123283e+00, 1.337255616526682e+00, 3.070702991132477e-01, 1.490088027370801e+00, 8.978292137600531e-01, 8.755191538235950e-01, 1.111604742169455e+00, 1.125840346358262e+00, 5.186517484676002e-01, 7.483111738028528e-01, 6.206395046599129e-01, 1.207504706741506e+00, 1.827834206107059e+00, 8.809329835736359e-01, 1.459761127885805e+00, 6.646618958292764e-01, 9.601076666469007e-01, 5.477843887690638e-01, 1.041333999009009e+00, 9.351661668854967e-01, 3.165070847755016e-01, 5.504327867486168e-01, 2.518160729137835e+00, 8.100644325407966e-01, 5.771310038499750e-01, 6.019717510629932e-01, 4.967993736495492e-01, -9.468908796809883e-02, 6.994184942000884e-01, 4.352901483288978e-01, 3.055495214936841e-01, 4.664281125354969e-01, 6.878822737325019e-01, -2.334969772089470e-02, 1.240601503759398e+00, 7.034182222985988e-01, 8.223299658478085e-01, 6.984845275701625e-01, 1.164236669656892e+00, 1.671178907920235e+00, 9.940178424446356e-01, 1.554244681647565e+00, 1.249530547774230e+00, 1.509105615798298e+00, 7.275299725531159e-01, 2.065323440897028e+00, 7.670446995727935e-01, 3.723636136483735e-01, 1.377166978016754e+00, 9.634407422145623e-01, 1.000046091462441e+00, 9.562445177481663e-01, 1.758870099924131e+00, 1.086330488670941e+00, 1.830470593956030e+00, 3.028563536716178e-01, 5.765947851952180e-01, 1.231173509229625e+00, 9.766646479057370e-01, 1.240601503759398e+00, 1.246829292774107e+00, 1.240601503759398e+00, 1.240601503759398e+00, 7.522650778647976e-01, 1.004735264705775e+00, 1.494811980240306e+00, 6.921682901944615e-01, 5.401858508170926e-01, 2.386620727981847e+00, 5.257260420250670e-01, 3.426263798246585e-01, 2.798087392462064e-01, 9.472205217762178e-01, 3.336336657698855e-01, 4.866398830491003e-01, 2.220086141562561e+00, 5.225268295945146e-01, 1.864354586084552e+00, 7.481742006582364e-01, 7.731715542234424e-01, 8.369685216618971e-01, 2.621963250117620e+00, 7.186959763994316e-01, 1.107436413096905e+00, 1.104993536812449e+00, 3.633121348713725e-01, 1.205557135753358e+00, 3.318777375101176e-01, 9.205642982051111e-01, 2.136538914144786e+00, 1.223367974462671e+00, 3.570232563163939e-01, 1.353760855550170e+00, 7.912535948889914e-01, 8.021104564646372e-01, 1.266037639206729e+00, 1.370399569264967e+00, 7.150898494121272e-01, 1.476855218247092e+00, 1.233848260157337e+00, 4.941815992917502e-01, 9.837919620521655e-01, 8.236645837714035e-01, 2.606442238729731e+00, 1.108082872425497e+00, 1.093536498836727e+00, 1.303577123520431e+00, 1.269320569269464e+00, 1.895493321362159e+00, 7.481599379488700e-01, 1.258454992957141e+00, 4.378415239926853e-01, 7.101956361692536e-01, 4.463195101274557e-01, 1.618288737740101e+00, 4.859794535949096e-01, 1.180595517791156e+00, 8.600827875574225e-01, 1.240601503759398e+00, 1.194478072323948e+00, 2.551220750184000e+00, 1.114729148395220e+00, 1.117700999367060e+00, 1.534447805030114e+00, 1.209783003832041e+00, 1.461343369142918e+00, 1.174218700517332e+00, 1.297228163531795e+00, 1.376839813819701e+00, 7.558679143775305e-01, 5.125966884943420e-01, 4.221031711086748e-01, 4.813101300852538e-01, 5.792737831510669e-01, 5.781438897300375e-01, 1.288824931766040e+00, 1.319719544323610e+00, 1.507588169206443e+00, 1.359763974147757e+00, 4.880783431974434e-01, 1.569177359450488e+00, 1.240601503759398e+00, 1.164782600991732e+00, 1.240601503759398e+00, 2.622968447201104e+00, 1.179591785086391e+00, 1.412634218139094e+00, 1.116159911232378e+00, 1.792551258285237e+00, 1.318313322252875e+00, 1.146413224591495e+00, 8.795241012852643e-01, 1.423419673169271e+00, 1.339200168709087e+00, 7.898681872190170e-01, 1.202024830849315e+00, 1.376493845089252e+00, 1.247143605656631e+00, 1.217847926678518e+00, 1.510997408039281e+00, 1.005715660803799e+00, 2.029709691066000e+00, 4.896546070439613e-01, 1.130664986102339e+00, 6.723605332794547e-01, 7.396209423380117e-01, 1.352117649354210e+00, 6.667601941145530e-01, 1.791283737772843e+00, 1.088444120525343e+00, 9.776846639630123e-01, 1.589602900388234e+00, 1.632753995943893e+00, 1.517105696058929e+00, 9.646885946609745e-01, 4.547395567224608e-01, 1.269972522095676e+00, 1.472228231122912e+00, 1.008425406259618e+00, 7.056104357946780e-01, 1.114008475190488e+00, 1.384153867924292e+00, 8.939329746044554e-01, 7.285454592949396e-01, 1.017284719095292e+00, 6.511093217408778e-01, 1.478107484739561e+00, 1.408305651727454e+00, 1.461289848509515e+00, 1.143958798339472e+00, 5.148433346880384e-01, 1.289281917666548e+00, 1.144172625691041e+00, 1.129600120981221e+00, 1.152561464469813e+00, 1.476852110203332e+00, 1.761070031654356e+00, 1.240601503759398e+00, 1.147320430221663e+00, 1.240601503759398e+00, 1.240601503759398e+00, 1.114986389769808e+00, 1.240601503759398e+00, 1.238408887226507e+00, 1.154154084565816e+00, 1.238345206166512e+00, 1.064359031265941e+00, 1.050752839781115e+00, 1.189592348566444e+00, 9.493442309250636e-01, 1.069441747994220e+00, 1.204326014580454e+00, 1.213430209425702e+00, 1.260319216716435e+00, 1.054013638327429e+00, 1.248360098292064e+00, 7.670519163417865e-01, 6.301026856283841e-01, 1.508048536401786e+00, 7.016622551659968e-01, 1.405587998196278e+00, 1.240601503759398e+00, 1.106371306789348e+00, 1.443318742666596e+00, 9.556118993441353e-01, 1.240601503759398e+00, 1.210574248899863e+00, 1.351409239185024e+00, 8.212345141391393e-01, 1.247248478353669e+00, 1.261390654594632e+00, 8.976003002557390e-01, 1.251102010949554e+00, 1.158682620566410e+00, 1.450207979242168e+00, 6.201027501986675e-01, 9.945242734798972e-01, 2.275437044060349e+00, 1.113523786928287e+00, 2.078762206491117e+00, 1.481169530404702e+00, 1.068046799311799e+00, 2.140792673540985e+00, 6.502805673099181e-01, 7.416054044555527e-01, 1.955799423815608e+00, 4.461194018292645e-01, 1.285878179702491e+00, 1.131046132311862e+00, 8.027568208383392e-01, 1.301021158936532e+00, 1.372498255171854e+00, 3.789285067759172e-01, 1.273617169819090e+00, 1.316765222521278e+00, 6.613876010516742e-01, 1.089274007261005e+00, 9.174875826675162e-01, 1.135129888164658e+00, 6.682519584304758e-01, 1.390962966903119e+00, 1.450200282155853e+00, 7.348380870193449e-03, 1.225468374829375e+00, 8.893789853613809e-01, 1.521764952550267e+00, 9.630966050523860e-01, 6.769520604178743e-01, 8.298187954359557e-01, 1.678668456495747e+00, 1.388109580937724e+00, 1.425580801619398e+00, 2.022099730573764e+00, 1.278324653261461e+00, 1.265537373974193e+00, 1.667299620575527e+00, 1.327811697437858e+00, 1.057366911674756e+00, 8.856361064857597e-01, 1.574152787480620e+00, 1.321324403474928e-01, 1.354616262972938e+00, 9.039009897692851e-01, 5.212068681692297e-01, 8.499102593154692e-01, 1.343112398164213e+00, 1.154073538885217e+00, 9.305995923613257e-01, 1.168818151988891e+00, 1.828519072893797e+00, 1.268057855005324e+00, 1.225952084831878e+00, 1.388167890028913e+00, 1.196578108420993e+00, 1.295519806903150e+00, 8.915968899001225e-01, 1.226128047803443e+00, 1.623146914002033e+00, 7.098219113646015e-01, 1.427506412546552e+00, 2.222703857736128e+00, 9.389933714060389e-01, 1.177938447953286e+00, 1.631011083213198e+00, 1.245259581518829e+00, 1.240601503759398e+00, 1.195501595527791e+00, 1.190350051224547e+00, 1.521680095653198e+00, 1.240601503759398e+00, 1.301512528234576e+00, 1.539393411833587e+00, 1.338165373847222e+00, 1.213064809504625e+00, 1.165002387894219e+00, 5.793586982220049e-01, 2.772895423134542e-01, 5.746748701712462e-01, 9.444022478441854e-01, 6.084804439732180e-01, 3.702425703019589e-01, 3.440828617614349e-01, 1.244677279981648e+00, 1.159521754533147e+00, 9.213237416985052e-01, 1.439619389153283e+00, 9.438661087269152e-01, 1.304644545675316e+00, 1.433524543719251e+00, 1.476953645678797e+00, 1.362895219701649e+00, 1.638501965466270e+00, 1.609041828668558e+00, 6.820700168410315e-01, 1.176273910457921e+00, 1.250143175864870e+00, 7.010317221550592e-01, 1.858503483369955e+00, 1.333084111809283e+00, 5.815963650197227e-01, 1.288651947984328e+00, 2.019324054660917e+00, 1.177523973598447e+00, 1.145610094000993e+00, 1.442828689891962e+00, 6.073267494846398e-01, 1.428692310588557e+00, 1.328287096758627e+00, 4.584849788272465e-01, 6.775100636562701e-01, 1.533228277485231e+00, 7.633151857522000e-01, 1.253530033730559e+00, 1.248668081018224e+00, 9.965587107317257e-02, 4.955612572247037e-01, 1.749716003081707e+00, 1.338695623788057e+00, 9.790512360167722e-01, 1.268754603716563e+00, 1.560728324076515e+00, 4.766779754878886e-01, 9.048657958272792e-01, 1.043622700958529e+00, 1.178330030931343e+00, 1.187905597440486e+00, 6.220739194563143e-01, 1.123554646784492e+00, 7.306887087773424e-01, 1.255129017177319e+00, 1.414072855377985e+00, 1.077120674773078e+00, 2.781022094685746e-01, 2.785308921856768e+00, 8.253378077170086e-01, 8.373935536723469e-01, 1.238725939066857e+00, 1.181117286850134e+00, 8.906618311933878e-01, 1.331118878232039e+00, 7.317334173829400e-01, 1.323785886252661e+00, 1.140044572558997e+00, 7.752919269842444e-01, 1.258518960775905e+00, 1.216296531668950e+00, 1.264065499076054e+00, 2.336163895713194e+00, 1.385120130722694e+00, 1.297301178939805e+00, 2.123473957770387e+00, 1.211637062921113e+00, 4.343294035020681e-01, 1.213702253475521e+00, 1.482027252873579e+00, 1.262065304098962e+00, 1.153265518200039e+00, 1.295417833046602e+00, 1.520140210269640e+00, 1.863955837241340e+00, 9.559006364091575e-01, 1.072054459597464e+00, 1.072456693742668e+00, 1.226685699314539e+00, 5.353075264039786e-01, 2.114172384598821e+00, 6.290468818323034e-01, 7.302098112005647e-01, 8.765302682436846e-01, 1.087332861571300e+00, 8.512340209564840e-01, 4.744877173204322e-01, 9.816343766117301e-01, 1.191072004462128e+00, 1.095022942032682e+00, 1.210903369982677e+00, 1.117435395647583e+00, 2.110154399572278e+00, 1.247964262813489e+00, 1.256146599238836e+00, 1.620147443101241e+00, 1.227600505115064e+00, 1.206913638109262e+00, 4.501760042585862e-01, 1.361338475023510e+00, 1.631231181116087e+00, 7.442007752324525e-01, 1.175087576116545e+00, 6.523270507925778e-01, 6.506708497376800e-01, 1.217119443608924e+00, 1.386459466980884e+00, 8.408701330851985e-01, 2.677295694122947e+00, 9.514875925282849e-01, 1.133172337240172e+00, 1.510679907588905e+00, 1.383363551755191e+00, 1.614795224959922e+00, 8.780498709531226e-01, 7.930068712777752e-01, 1.592748660182201e+00, 9.673512282612693e-01, 9.274753800039643e-01, 9.634362476721084e-01, 1.444824496687437e+00, 1.288882795432811e+00, 1.769787715986840e+00, 1.934952185977027e+00, 1.674147127021349e+00, 7.778783246344180e-01, 6.844907126288667e-01, 4.428795341234180e-01, 1.264622276448609e+00, 1.248222207030331e+00, 1.171015491564164e+00, 7.728901003953778e-01, 5.541563545546693e-01, 1.163580104327369e+00, 8.297400537187855e-01, 1.220902119266039e+00, 1.201039845293917e+00, 1.136291256133317e+00, 1.730141518916192e+00, 8.389607403103432e-01, 6.329388998139105e-01, 9.181032744735269e-01, 5.920102495900434e-01, 1.312279252007679e+00, 1.210476081271369e+00, 1.610683989388389e+00, 9.286317727689399e-01, 7.474641158374816e-01, 1.252029255403545e+00, 1.347030185413708e+00, 8.777326823077100e-01, 1.815177878607118e+00, 1.239665312066044e+00, 1.228907523138913e+00, 1.425896450292785e+00, 1.325917375163781e+00, 1.240203090758460e+00, 1.083229803512512e+00, 1.920153684473709e+00, 2.445452191572956e+00, 5.430218679669880e-01, 2.156614018364225e+00, 4.962070086387190e+00, 4.688961307875847e-01, 8.513623799315742e-01, 2.069740061897636e+00, 1.275352351610319e+00, 1.283973211751264e+00, 9.802168236486727e-01, 8.718529477353854e-01, 7.743404716549329e-01, 4.493367225874039e-01, 1.255627646707037e+00, 6.487606705972284e-01, 1.454967730045138e+00, 1.372435081526797e+00, 1.710570954423476e+00, 7.558234474226355e-01, 5.672190848861212e-01, 1.110939456644922e+00, 7.184537001498206e-01, 1.957504715933363e+00, 1.022832920959553e+00, 1.236237449593483e+00, 2.100437261928352e+00, 2.115363719164587e+00, 1.726072527004896e+00, 1.088302482437264e+00, 9.566264176067559e-01, 1.235486665696784e+00, 7.441168760430819e-02, 1.367998866344915e+00, 2.069456469442260e+00, 1.483240853090739e+00, 1.158012366066058e+00, 1.609766527599651e+00, 1.406115372757257e+00, 1.127693383860045e+00, 1.622040249543332e+00, 1.084644039751145e+00, 8.222704214077257e-01, 1.770388713851106e+00, 1.873343535552882e+00, 1.058118038821251e+00, 3.922563881846179e-01, 8.687121475077497e-01, 1.650976451163079e+00, 1.263483273771031e+00, 8.149992945107494e-01, 1.680739134076670e+00, 4.993832541823788e-01, 1.597205574845924e+00, 9.942367478668257e-01, 1.271451974650054e+00, 1.406277394242321e+00, 1.509626687907395e+00, 2.499607757387570e+00, 1.207110954456976e+00, 1.382529174941129e+00, 7.982725168274772e-01, 1.052294316085175e+00, 1.010096721144295e+00, 8.897484110817314e-01, 1.398023024969105e+00, 1.358412612769299e+00, 1.980995704620318e+00, 1.799312999120790e-01, 1.174868262156234e+00, 1.497051287444240e+00, 9.834341942008975e-01, 1.144182691529908e+00, 1.737038755421885e+00, 8.153794562634940e-01, 2.118078291943853e+00, 1.194320897369679e+00, 1.609321609601335e+00, 1.279812037526391e+00, 1.090661687551066e+00, 1.265106029893860e+00, 1.826565253299016e+00, 1.492962655690944e+00, 1.244167307281101e+00, 2.156180300811768e-01, 9.242886852191347e-01, 3.299188357600486e+00, 4.452052146537697e-01, 3.383309826057277e+00, 2.299280548903440e+00, 1.349972379207018e+00, 1.506136395663056e+00, 1.005783305326347e+00, 6.873939201371493e-01, 1.369851445972411e+00, 8.658787640025147e-01, 3.347661666276786e-01, 5.581171805412541e-01, 1.683192122372499e+00, 3.222653669570294e+00, 1.166133958708796e+00, 1.246395253113899e+00, 9.650007261143236e-01, 1.615509656061119e+00, 1.264456288237458e+00, 1.382051831090863e+00, 1.127045948326749e+00, 1.334672911480920e+00, 7.401577241117624e-01, 1.431040683290018e+00, 1.818766834302649e+00, 1.194196063910796e+00, 1.821451442359732e+00, 1.267344028896373e+00, 1.934669866367454e+00, 6.344314363155907e-01, 2.848260907664046e+00, 1.079729992342218e+00, 1.286748667976070e+00, 1.003894432940622e+00, 1.624251539572827e+00, 1.409639335345783e+00, 8.858291127587964e-01, 1.295434492440712e+00, 4.693566844103149e-01, 1.957386069691143e+00, 9.589226183266528e-01, 1.300658728987319e+00, 1.035247863747866e+00, 2.262328003022429e+00, 7.639563575270168e-01, 1.149040254338642e+00, 6.622994598691601e-01, 2.505577392099828e+00, 1.676291548282927e+00, 6.528914360903800e-01, 8.681630239603692e-01, 1.293683003216472e+00, 1.216556648226608e+00, 1.330946152645828e+00, 1.305299223771547e+00, 4.767616792209969e-01, 1.171783212191190e+00, 1.070855298333171e+00, 1.067316704573162e+00, 8.905311771069525e-01, 5.545058212528559e-01, 1.060627000574758e+00, 1.011038013251995e+00, 1.134162661502851e+00, 1.351185850049888e+00, 1.471707668540716e+00, 1.163162231130132e+00, 1.153810329132822e+00, 1.292753318184120e+00, 8.256847560061055e-01, 7.684124943091468e-01, 8.900853362636383e-01, 6.882076585029603e-01, 1.727250782701592e+00, 1.181895030365381e+00, 6.884456914612279e-01, 1.313404114536681e+00, 1.258927211737698e+00, 1.300299016410425e+00, 9.157811910856886e-01, 1.238415549999964e+00, 1.179801904428449e+00, 1.490487400928944e+00, 1.277194843014704e+00, 1.332178040177474e+00, 1.426854357022592e+00, 1.721499533899723e+00, 8.100448785507084e-01, 1.563697181090488e+00, 1.699006168512504e+00, 9.610009914010088e-01, 4.410961992863506e-01, 1.778481141473871e+00, 1.837178395100281e+00, 9.584460422986852e-01, 1.387032641664563e+00, 1.334299380886385e+00, 1.072556109701303e+00, 2.427083918971425e-01, 1.306431173350882e+00, 1.025895141123451e+00, 8.651811089741868e-01, 1.469790095717102e+00, 1.566644274557487e+00, 1.530904549587196e+00, 1.827201867220972e-01, 8.651967109161649e-01, 1.755591690130448e+00, 1.254518609006421e+00, 1.677687713179076e+00, 8.928222689830867e-01, 1.372490902757613e+00, 6.433366242437113e-01, 7.588198472636136e-01, 1.757484211491546e+00, 1.891869169726438e+00, 1.991635594213082e+00, 4.937684358128606e-01, 2.211280476697796e+00, 1.440952756054770e+00, 1.028701467312622e+00, 1.227180510920050e+00, 6.678049205342672e-01, 7.311642793059276e-01, 1.465957643854549e+00, 6.138963989277554e-01, 7.557170293015414e-01, 7.844161546421419e-01, 1.700367578992535e+00, 1.779367792821701e+00, 7.468376816192354e-01, 1.376554550328087e+00, 1.385802249782637e+00, 6.452600259350200e-01, 1.332517715456646e+00, 1.633538058958471e+00, 7.210522609683157e-01, 1.617180494024097e+00, 9.351103477853575e-01, 9.656645683622094e-01, 6.724589621391277e-01, 1.268399743170144e+00, 3.582004704625661e-01, -2.333414429468442e-01, 1.176609900834042e+00, 1.139376592913400e+00, 1.359504620529403e+00, 7.007135979065459e-01, 1.978143430713047e+00, 1.343636599634556e+00, 1.053113394433340e+00, 1.295752636624588e+00, 1.156661279691407e+00, 1.263459271533198e+00, 1.627624022872423e+00, 4.989138902876630e-01, 1.086211758767905e+00, 2.013343404557713e+00, 1.342522812761420e+00, 1.973711706263536e+00, 1.337544100914471e+00, 1.521900607049065e+00, 1.364294035349075e+00, 7.356229522273546e-01, 1.222908423723886e+00, 9.622509827624753e-01, 6.521618843254343e-01, 9.312782619756894e-01, 1.117725466467648e+00, 1.609150305514975e+00, 1.572918909520747e+00, 1.127046894367054e+00, 2.139331059832973e+00, 4.596055236734552e-01, 9.107261662976790e-01, 1.795799105204757e+00, 5.695369432275064e-01, 5.870470339511229e-01, 1.111893795559947e+00, 1.248465854965216e+00, 7.117760607816435e-01, 5.496512153571294e-01, 4.484987975148555e-01, 1.134622414381068e+00, 4.871488812124909e-01, 6.032059043991629e-01, 6.003858760019322e-01, 6.434812283797698e-01, 9.298813283564717e-01, 2.820336987975581e-01, 1.167236149956670e+00, 2.304408080501511e+00, 5.770561946526322e-01, 1.962885250600263e+00, 2.010426339546260e+00, 1.362192001783015e+00, 6.505078245470521e-01, 3.800910847232105e-01, 1.722267557200715e+00, 2.097295005530158e+00, 5.183887342185630e-01, 2.745800142573962e+00, 2.071577753545962e+00, 1.030992963952211e+00, 1.015048431054251e+00, 1.786698008856649e+00, 8.157540742397564e-01, 1.214690673886835e+00, 6.607679026438850e-01, 1.831273554737756e+00, 1.097888615687217e+00, 1.175832818529113e+00, 1.781611196796969e+00, 1.157586745495687e+00, 1.589150339225178e+00, 1.136931225687304e+00, 7.807031814409512e-01, 3.505203497380695e+00, 5.014643358530750e-01, 1.257024524560478e+00, 1.043346501551967e+00, 1.284805837595058e+00, 1.006297746523959e+00, 1.054212325148931e+00, 1.553957203471209e+00, 1.471805065419010e+00, 7.404219602513834e-01, 1.200448252754011e+00, 1.100617706593172e+00, 1.315895134107965e+00, 1.013195781505529e+00, 1.260825567626297e+00, 1.341832018274072e+00, 1.356217595271946e+00, 1.058537759850009e+00, 1.188274224601267e+00, 1.520461568566856e+00, 1.590974105541920e+00, 2.044137999291787e+00, 1.786158398906552e+00, 1.514351841489614e+00, 1.274175656168102e+00, 1.390723824662198e+00, 1.768520568500260e+00, 1.381961534036218e+00, 1.056451590924832e+00, 1.282940192620388e+00, 7.124195264872655e-01, 1.253071046021539e+00, 1.320123382105965e+00, 1.969499121768700e-01, 9.167694399974321e-01, 4.503813282426919e-01, 1.708383389336384e+00, 8.131785261661396e-01, 8.801294988223661e-01, 1.188145817747996e+00, 9.850829267929889e-01, 1.275275595284151e+00, 1.947174713181016e+00, -4.363600293338728e-02, 1.531254236514225e+00, 7.917848492339984e-01, 1.267204564853749e+00, 9.664044506949027e-01, 1.764560916129273e+00, 5.104986064263277e-01, 1.601662312887400e+00, 1.368419066759809e+00, 3.166856070243898e-01, 8.738415018374130e-01, 1.703473479938684e+00, 3.567402758345122e-01, 1.311524142300333e+00, 2.116080856153976e+00, 2.377034758679565e+00, 1.278716261376819e+00, 9.913597508788518e-01, 1.992510338194827e+00, 1.357890164415681e+00, 4.381832108289962e-02, 5.040406090020895e-01, 1.297465613427963e+00, 3.791317327657982e-01, 1.930576039286245e+00, 1.320690455696920e+00, 2.342374524631470e+00, 2.228483648414006e+00, 1.395212653491352e+00, 2.337652854923039e+00, 2.216651402921392e+00, 8.334673309873415e-01, 7.739248202841928e-02, 1.339639175514329e+00, 2.094296504097255e+00, 1.784474174030154e+00, 5.337770861519453e-01, 1.071271895841537e+00, 1.165913317361621e+00, 8.888122004156254e-01, 8.788085403774153e-01, 9.880564588708466e-01, 8.656252369616068e-01, 1.449201563011401e+00, 1.032396201795123e+00, 1.240601503759398e+00, 1.136067420673508e+00, 1.175349669418286e+00, 2.427079975412169e+00, 9.735509554709256e-01, 1.985643064328908e+00, 1.434858932819962e+00, 1.656959584647715e+00, 8.687055537787416e-01, 1.302697661965578e+00, 1.181795462421306e+00, 2.317154593773228e+00, 1.389822019338131e+00, 4.457467193097681e-01, 1.458514836941966e+00, 2.133289687915013e+00, 2.431749472280003e+00, 9.870389698183913e-01, 1.020375720120090e+00, 1.124260274639306e+00, 2.325719680189025e+00, 6.239640705631224e-01, 1.269093917376067e+00, 1.240601503759398e+00, 1.966936851066418e+00, 1.305775640356251e+00, 6.109758069696006e-01, 1.370131330317126e+00, 9.433293850359017e-01, 1.328252843240918e+00, 9.618304207925025e-01, 1.075898067529303e+00, 1.277790956557999e+00, 5.498618191407292e-01, 2.712549889397978e-01, 1.022708849246427e+00, 5.592496214959930e-01, 2.086925391463743e+00, 1.724750147184162e+00, 1.380315535784389e+00, 6.877055714246363e-01, 9.965676881822629e-01, 8.340512171133148e-01, 8.454476229797280e-01, 6.908855767113873e-01, 1.092336970838375e+00, 1.064485137106463e+00, 9.740947376632269e-01, 7.266101161811458e-01, 9.607773626757593e-01, 1.294449535576061e+00, 1.787353889760053e+00, 1.514139485933790e+00, 1.888717795364181e+00, 2.210142975037145e+00, 1.609923955128502e+00, 1.153202800441513e+00, 1.099066616302080e+00, 2.155176714729291e+00, 1.126436206661982e+00, 1.446127466483471e+00, 9.765356493944883e-01, 1.790919338846435e+00, 1.311899875252705e+00, 1.191794873793621e+00, 7.017951393589325e-01, 1.234659684156953e+00, 6.563137562864749e-01, 1.447093974955238e+00, 1.499361826013123e+00, 1.558652941655122e+00, 1.544590351956825e+00, 1.960943390396277e+00, 1.578318086092770e+00, 6.339822827191633e-01, 1.439454935477864e+00, 1.008034465331625e+00, 7.371441440816578e-01, 1.409689411776045e+00, 1.613371116113635e+00, 1.283872632117913e+00, 1.439413916401162e+00, 1.008226812773113e+00, 1.098260736348660e+00, 1.239822896136829e+00, 1.542457059540959e+00, 1.369630848025270e+00, 1.653885318530981e+00, 1.349434132112053e+00, 5.175973244440900e-01, 1.272118915464144e+00, 1.849946602225449e+00, 1.434164661930093e+00, 1.572414282168246e+00, 1.528364588518821e+00, 2.115900146878357e+00, 8.419652837231273e-01, 5.006595348398069e-01, 1.487637120619422e+00, 8.919157637215083e-01, 7.008722442026686e-01, 1.968356182489091e+00, 1.038575862328969e+00, 3.736034007446539e-01, 2.068998278035187e+00, 1.601015858879531e+00, 1.464171410402358e+00, 1.223968644863100e+00, 1.550058156313102e+00, 1.274125433582779e+00, 2.880912189005245e-01, 1.260028510990192e+00, 1.164850304391000e+00, 4.335939431901413e-01, 4.857368342188746e-01, 1.135868935366080e+00, -1.189259857248209e-01, -9.489657714076637e-03, 3.231115375841935e-01, 3.112355761343687e-01, 5.774994700892920e-01, 6.118064890876705e-01, 7.980352361254829e-01, 2.082771469250861e+00, 4.276907868109243e-01, 6.746451911334533e-01, -2.242546057310831e-01, 5.615394650694242e-01, 6.455203537399238e-01, 1.011078381962612e+00, 1.631457589128471e+00, 7.866529376877389e-01, 7.762054832329705e-01, 2.347611499437266e+00, 1.271128259524746e+00, 6.954433642347407e-01, 8.139491892823022e-01, 5.595086013581735e-01, 1.473301009040142e+00, 6.991765718024012e-01, 1.557741051277971e+00, 1.241710057306738e+00, 6.840716875330948e-01, 1.039032394248879e+00, 4.229700540089286e-01, 8.915733641700374e-01, 7.610749569034650e-01, 1.015470934149661e+00, 1.041453717537413e+00, 5.982603507844803e-01, 1.336349815215085e+00, 1.359872818479925e+00, 1.319732761078702e+00, 5.858161550677585e-01, 6.134788086804732e-01, 2.531735832800424e+00, 1.197664105119932e+00, 8.110399007855228e-01, 9.880244497704238e-01, 5.789330351279313e-01, -1.474239059726713e-01, 8.682593502271165e-01, 1.535195996263507e+00, 9.076790712492432e-01, 4.752153184092998e-01, 5.740788945738292e-01, 1.098272571753079e+00, 1.306447582889303e+00, 1.432786881221092e+00, 1.069471001383788e+00, 1.767030214737977e+00, 9.427980281424879e-01, 4.912874622123424e-01, 1.507187229829432e+00, 2.729707902258252e+00, 1.831067085421585e+00, 1.476748725296018e+00, 1.474247051900470e+00, 8.215327343872798e-01, 1.536028554211876e+00, 1.222219882834458e+00, 4.136807046312335e-01, 9.782021206744184e-01, 9.726199348533708e-01, 7.946454452711895e-01, -5.326719892141617e-02, 5.902921136364124e-01, 3.994960773499892e-01, 9.638521990258050e-01, 4.655959438756236e-01, 1.645789207494825e+00, 1.223106445435189e+00, 9.479741923696308e-01, 1.240601503759398e+00, -8.511212985933011e-01, 1.390372187193010e+00, 9.524919457885206e-01, 2.539110678042822e+00, 7.513825401238782e-01, 1.846502437546021e+00, 2.824099512704479e+00, 1.492899128697171e+00, 4.013826507591222e-01, 5.555641365168046e-01, 5.520054490410569e-01, 2.290017272034861e+00, 4.992760263203835e-01, 1.077648984440664e+00, 1.109653363978489e+00, 1.079087708012117e+00, 9.888631871213049e-01, 2.967217570296219e-01, 7.206258446538655e-01, 2.329033550144918e+00, 1.001730660140112e+00, 1.782518723489554e+00, 1.877148221900638e+00, 2.035833751942552e+00, 1.778924163780399e+00, 1.451689536388240e+00, 7.003565475618689e-01, 8.557542506704112e-01, 2.576523144763056e+00, 1.294459932398655e+00, 1.930038182421710e+00, 2.103464645214288e+00, 1.188988989608119e+00, 3.561279055524520e-01, 5.480277666275194e-01, 6.757064386894601e-01, 2.042981785210855e+00, 2.579293797327153e+00, 1.963347586621214e+00, 7.930238201883885e-01, 1.830560439396395e+00, 9.237975642456002e-01, 1.871548299388346e+00, 1.062111577739131e+00, 1.768513438719091e+00, 1.541534435220662e+00, 1.380021774176857e+00, 7.370117899863540e-01, 4.157543048536013e-01, 7.615925969906953e-01, 5.869791569680678e-01, 4.883421912963140e-01, 2.646849046964879e-01, 2.549989668524129e-01, 4.275635554989418e-01, 1.904812407929796e+00, 7.510998855434706e-01, 1.546239477764449e+00, 1.621929976325165e+00, 9.979098370353411e-01, 1.445064544018902e+00, 1.865265554297231e+00, 1.255078481687222e+00, 1.265008640091299e+00, 1.148387901486216e+00, 8.444498230038373e-01, 1.661359125248661e+00, 7.440526433512168e-01, 9.853736079997240e-01, 1.332013802026183e+00, 2.806321947650999e-01, -5.589831012842913e-01, 1.709932782265576e+00, 6.161846345026633e-01, 1.055400465615585e+00, 3.679881522139832e+00, 3.272734146223832e+00, 8.572209558623648e-01, 4.455683512022098e-01, 1.103698598865642e+00, 1.985033827991603e+00, 1.395210315270350e+00, 1.096914173355962e+00, 1.228080957517603e+00, -2.170649514415996e-01, 1.200297546110468e+00, 1.086869661244882e+00, 3.607557462636753e-01, 8.614969262317788e-01, -2.647366928462255e-01, 1.364741205227323e+00, 1.525966300091466e+00, 3.928586327732700e-01, 5.754184812268539e-01, 1.756150285768189e-01, 7.359996983958609e-01, 6.239316556906999e-01, 1.376309004906480e+00, 1.419739352844338e+00, 9.264087889698102e-01, 3.114843357556489e-01, 6.880514140623215e-01, 7.173390720894475e-01, 9.467821500110764e-01, 1.287316072380319e+00, 8.595497593345038e-01, 2.525301588743151e+00, 7.215745730718349e-01, 5.295644907100011e-01, 5.284082606597216e-02, 5.040409599319350e-01, 1.299920539141745e+00, 1.597260319383507e+00, 7.667552002438798e-01, 1.060231116082865e+00, 5.246831193683292e-01, 1.009883278601066e+00, 1.101762436452086e-01, 6.518408088475476e-01, 1.700104223975386e+00, 8.255396805633631e-01, -9.127180086105290e-03, 2.321347504577279e-01, -7.176834258371026e-02, -2.029684445952234e-01, 1.240601503759398e+00, 3.813718664622135e-01, 1.997889766215482e+00, 4.343883188120739e-01, 